-1.241047699271508797e+01 8.983820357039767259e+02 8.977505218741980570e+02 9.218725674239267391e+02 9.223884886702533095e+02 9.225796133632150031e+02 9.218429112078156322e+02 9.219732191582147607e+02 4.546884988865054993e+02 4.440778145089232680e+02 4.449131285492141501e+02 4.447753560083014577e+02 4.532990256124307962e+02 5.342633203061712948e+02 -9.610497032395854831e+02 -8.237699341014108541e+02 -7.748485282667056708e+02 -7.743672113873549279e+02 -7.743871369021694591e+02 -7.424813846264261201e+02 -1.289599451671439510e+03 -1.585832405850411988e+03 1.093226276521959939e+01 -1.614165583807509279e+02 -1.178148972952362357e+02 -1.182006861765330399e+02 6.962145637696812628e+01 7.401710145214974546e+01 5.245972667340433873e+02 5.242043766921512997e+02 5.241813922643270871e+02 5.249168123043411924e+02 5.246451085644434897e+02 4.981447136910944664e+02 -2.604402210686338549e+03 8.935354712252801619e+02 8.982382031248496332e+02 9.220242982871259301e+02 9.223767085128868075e+02 9.221393529132155891e+02 9.224803058063503158e+02 9.222783404665790385e+02 4.573852869119417619e+02 4.933836074228347002e+02 -5.102690139209090376e+03 -8.909124119502417898e+02 -7.854655329069722711e+02 -7.850308983171565842e+02 -7.750987410341479062e+02 -7.747096622868323266e+02 -7.749145671129995208e+02 -7.746777457898892862e+02 -7.398416696418814809e+02 -7.037982188263474654e+02 -7.037318164396440352e+02 -7.135116635148436899e+02 -7.136692241934409822e+02 -1.259124847574488513e+03 -1.247881675019522845e+03 2.618557534127575650e+02 8.880895600999787121e+01 7.419225099440541271e+01 5.245339643594204517e+02 5.247090206792686331e+02 5.243997055429722423e+02 5.243143264280306539e+02 5.240272337002106724e+02 4.596061056643607117e+02 -2.540033962361321755e+03 8.916663523056738541e+02 8.980585027583736064e+02 9.222478040664059336e+02 9.217943042283732211e+02 9.222157850901699021e+02 9.224418081166888896e+02 1.011743634266659910e+03 -4.941929943779099631e+03 -8.794161004917970104e+02 -7.849971188958951416e+02 -7.853284447754618895e+02 -7.852640974298761876e+02 -7.851088798618906139e+02 -7.743452502703171376e+02 -7.748613143820014102e+02 -7.744045984132992544e+02 -7.380224627934090904e+02 -7.030831672158190031e+02 -7.033399264750996736e+02 -7.037203287665745393e+02 -7.035696446385131821e+02 -7.138865633175818175e+02 -6.729036702730363686e+02 -6.471328250359656522e+02 -1.060009882400619063e+03 -1.127570780903702598e+03 -5.291848761483161979e+03 5.430993635939963724e+02 5.241430996260878601e+02 5.249487889705926591e+02 5.244150117583176325e+02 5.240485221453916438e+02 4.452040735145092754e+02 -2.543010341620749386e+03 8.913776192715092748e+02 8.940633373397470223e+02 9.224855562704472050e+02 9.217890306510191749e+02 9.615773442756154736e+02 1.012076540455672102e+03 -3.433223193380569683e+03 -6.923845720064804254e+02 -7.061795405611680962e+02 -7.852415269921065146e+02 -7.855398581582581983e+02 -7.846214693904950082e+02 -7.749228113326619223e+02 -7.750908617052314185e+02 -7.338678472870808491e+02 -7.037576504575508807e+02 -7.032457456725812790e+02 -7.029910683494276782e+02 -7.033103266765324406e+02 -7.031151329637236813e+02 -7.033297302501000559e+02 -6.731198441989411094e+02 -6.583511659269288430e+02 -4.734315647576896708e+02 -4.733258144301008770e+02 -4.691707912168944858e+02 -9.815576967908453980e+02 -3.958935081027209435e+03 7.308803887673137751e+02 5.335211659670484323e+02 5.244827867658937066e+02 4.693643856741816194e+02 4.412257311952759551e+02 -2.542188493660114091e+03 8.915307428145347330e+02 8.937951360487488728e+02 9.222398051387663145e+02 9.617582069319529410e+02 -4.624855954137929984e+03 -3.960244176391596511e+02 -3.075661305112792547e+02 -6.219747334929257931e+02 -7.061068791199650150e+02 -7.805952336754875205e+02 -7.852617970968427699e+02 -7.851708517774885649e+02 -7.745126785341433333e+02 -7.312719830097126987e+02 -7.029787389266753053e+02 -7.038176976391514472e+02 -7.032761254084543907e+02 -7.031382267305361893e+02 -7.037692991200576671e+02 -7.034810271151263805e+02 -6.619283681047910477e+02 -6.589124871235625278e+02 -4.843414219372264711e+02 -4.737443266463067175e+02 -4.693226951425494917e+02 -4.693415976672813485e+02 -3.946746526567029605e+02 -6.051162545470120904e+02 -3.711812979660081055e+03 7.345148203743523254e+02 4.781986250403695067e+02 4.690315728544322269e+02 4.410102094265199071e+02 -2.542436105219108413e+03 8.912105161228646466e+02 8.942695645351864187e+02 9.572556335401321803e+02 1.011680093458357533e+03 -3.919923200262814476e+02 -3.076006256786724293e+02 -3.078797899240265679e+02 -6.216630169536102812e+02 -6.334896994489853341e+02 -7.052555678776193417e+02 -7.847521609171388945e+02 -7.849453265246123692e+02 -7.293504933954985745e+02 -7.030072238686125274e+02 -7.030414322726430782e+02 -7.035256920580195583e+02 -7.033263469250482558e+02 -7.031417336741253621e+02 -7.035229828788699251e+02 -6.619556660860401962e+02 -6.480582460523752388e+02 -4.744874823164325903e+02 -4.844858941887296737e+02 -4.732599296726278908e+02 -4.695245881570374422e+02 -3.975263193428928048e+02 -3.942549109704153807e+02 -1.856458058830318691e+01 -6.057410345665573459e+02 -3.767001418471052602e+03 6.828661470583864457e+02 4.748701573150672175e+02 4.413551691637354111e+02 -2.542490755868158431e+03 8.908326197539520308e+02 9.303071465728113481e+02 1.008054088508571340e+03 -3.422755062076699687e+03 -3.070404355480679897e+02 -3.069242476173007503e+02 -3.077592974804854293e+02 -6.217026439999083323e+02 -6.306871206949911084e+02 -7.058682447271601177e+02 -7.809058822854668733e+02 -7.374591382437220091e+02 -7.036968397348589406e+02 -7.035663940149968312e+02 -7.035177187517599577e+02 -7.031401921348906399e+02 -7.033366250479068640e+02 -7.033887682206404861e+02 -6.619401521474635501e+02 -6.480038502880513533e+02 -4.738608722936161826e+02 -4.742616845121280562e+02 -4.844221484478986781e+02 -4.698483471614121072e+02 -4.693472618210311111e+02 -3.948896934582801350e+02 -3.946004159464697523e+02 -1.920938303602855513e+01 -7.408811552198510242e+01 -7.324906594535840441e+02 -4.013403313572672687e+03 6.403844846408370586e+02 4.382997962600447295e+02 -2.569221544844670007e+03 8.942599701705202051e+02 9.574447350640309651e+02 -4.533752074457830531e+03 -3.962013992684052823e+02 -3.216415586673821281e+02 -3.217328610731350409e+02 -3.216012855658938747e+02 -1.355458301685009701e+03 -1.364547884400642033e+03 -1.387999373223681232e+03 -1.392241990634691319e+03 -1.469535934584312599e+03 -1.797208615411364917e+03 -1.160141471898120074e+02 -2.297868483144112020e+02 -2.300047648026715592e+02 -2.297980681600720345e+02 -1.886711056230986401e+02 -1.746735245833660883e+02 -1.750755845527633596e+02 6.249818645651859015e+02 -7.274290273898178611e+02 -6.634952610830872572e+02 -5.501897956043961813e+02 -5.327677006856960134e+02 -4.544624100950763363e+02 -4.541192071013729787e+02 -1.336754804381179724e+02 -1.330844823308971741e+02 -1.332857257594449152e+02 -7.960564612136871574e+02 -4.926203627663036059e+03 5.955135892559761714e+02 -2.612529136823190129e+03 9.356179719101795627e+02 -4.669826170949225343e+03 -4.023510446742943145e+02 -3.260932859653302103e+02 -3.228902276575865926e+02 -3.212406067344920189e+02 -3.477906829301281846e+02 -1.355793245191062169e+03 -1.311178732711424345e+03 -1.305234561668291690e+03 -1.728159209007320442e+03 -1.183326998372687910e+02 -2.314754781403270272e+02 -2.318921565394576874e+02 -2.295647774288023015e+02 -2.300161950291136463e+02 -1.888811604928460497e+02 -1.748434575066622187e+02 -1.752632995981834938e+02 -7.858658599867628380e-01 -1.013486172474412861e+00 5.835079108885831829e+02 1.618322514593908863e+03 -6.488043715598801100e+02 -5.465296297838441433e+02 -4.545220322160889168e+02 -5.094244181635601194e+02 -1.336040600944188839e+02 -1.327356444290083459e+02 -1.360023083634923182e+02 -2.092487246767902320e+02 -7.957518045022860633e+02 -5.017593001718324558e+03 -2.532812758765012404e+03 8.963147031328844605e+02 -4.349814643559358046e+03 -3.284398829221929077e+02 -3.256143707450019633e+02 -3.254107792761109863e+02 -3.212820075545253644e+02 -3.219279510143273342e+02 -1.299682069128110243e+03 -1.302435559346234641e+03 -1.631800652545356570e+03 -5.672437088021951723e+01 -1.525499771595954428e+02 -2.308726424667097490e+02 -2.317815986933045451e+02 -2.303618376999262978e+02 -1.887401123625631953e+02 -1.753504058564242314e+02 -1.752837347934997752e+02 -1.114213250036839575e+00 -1.004788985884841335e+00 -5.415272069543312083e-01 1.118377412665021442e+00 1.813432936008147589e+00 1.598681069721211998e+03 -6.483503245080157740e+02 -5.988773498809630382e+02 -5.181451566724491613e+02 -1.330089814266996768e+02 -1.327601526505177389e+02 -1.367733061811757693e+02 -1.368833151756421103e+02 -7.956256905935218811e+02 -4.940799005002083504e+03 -2.496572931870909997e+03 8.644327690573321661e+02 -5.066378210327062561e+02 -3.679186610164486524e+02 -3.651550636764466731e+02 -3.650261898531888392e+02 -2.621375160243463824e+02 -2.500702828454892312e+02 -1.283959318040990411e+03 -1.629397460703777142e+03 8.881537482575453168e+02 -9.030204082155279366e+01 -1.519540752177228740e+02 -1.523690374823932245e+02 -2.314530694531423478e+02 -2.295816932236415937e+02 -1.750585147247371651e+02 -1.751736963345664435e+02 -1.262169620547934024e+00 -1.184069983741570464e+00 -1.000119497275552272e+00 -9.390659290265707115e-01 1.614031928894191559e+00 8.688638589540785828e-01 8.641355575367546749e+01 1.654383414965525390e+03 -6.170529707402946542e+02 -5.887090490379481480e+02 -1.329932194955678995e+02 -1.373054419718692429e+02 -1.368335161241043920e+02 -1.375502472641347822e+02 -2.245651817105290320e+02 -1.739247210759520385e+03 -2.495900987413745497e+03 -4.772828470758709045e+03 -4.361193690847161406e+02 -4.081897785649138086e+02 -4.061616990278363915e+02 -3.434463728588496565e+02 -3.341237666635083770e+02 -2.896898760052348507e+02 -1.332558589765059423e+03 -4.663946089731581196e+03 8.178067710634310288e+02 -8.071474421047511782e+01 -1.521338280521256650e+02 -1.528116781719897119e+02 -2.302647912046331840e+02 -1.748922519532785032e+02 -1.752949119883815570e+02 -6.100013685313495637e-01 -4.708055985282917910e-01 -5.977264294056493510e-01 -4.348247943218990774e-01 3.347851865351569867e+00 1.465921785992112980e+00 1.412742820879812378e+01 7.235182245988669081e+01 9.555500643514168360e+02 -3.985629273631888282e+03 -6.164881751647809551e+02 -2.126519176523415240e+02 -1.377242394695606436e+02 -1.463577680716223881e+02 -2.206155777833956222e+02 -3.036139339430613404e+02 -1.739892802073114353e+03 -8.104737113447567026e+03 -4.409980131076224097e+03 -4.328305880865210611e+02 -4.087566065816140508e+02 -3.407983144650590930e+02 -3.350189680957313954e+02 -3.342407752629526954e+02 -3.315749558272596005e+02 -1.620208412586164741e+03 -4.822727724663942354e+03 -6.356750856874547395e+01 -7.993035242822895725e+01 -1.523226792107440986e+02 -1.526798566080347257e+02 -9.737780108220243847e+01 -1.525169996056266086e+02 2.132124377458644204e+01 2.090156975973197717e+01 2.133990823054786290e+01 2.088668965512790265e+01 2.093598904297589058e+01 3.501128073294528686e+00 9.993854102811939200e+00 -8.369888009201519319e-01 4.154028524645521969e+01 8.839782201471017515e+02 -3.986107121609054047e+03 -8.631967800025429369e+02 -2.164855860830554377e+02 -2.172429786667039480e+02 -2.167903573536850956e+02 -2.295138052515920322e+02 -3.038614121502887997e+02 -1.153040663348817361e+03 -7.819099848817629208e+03 -1.375322511907837907e+03 -3.633569657234737633e+02 -3.375789543512071873e+02 -3.374927966451409702e+02 -3.343523160365588183e+02 -3.343859773342512653e+02 -3.345849871756047946e+02 -4.655797631540634029e+03 8.134588043250581677e+02 -6.361853218788387920e+01 -7.752577770339951257e+01 -8.058139794011290746e+01 -9.748155810771814345e+01 -7.521062279060066658e+01 -1.489625649125124482e+02 2.170016823240815995e+01 2.146510904630750360e+01 2.109650865025445654e+01 -1.071756924364868269e+01 -1.525173778399713775e+01 2.541092713046574403e+01 -5.678712322850419936e-01 3.083745676140394920e+01 4.161856087165701723e+01 7.095435506223021775e+02 8.892764727436889416e+02 -3.898353986570365123e+03 -2.163510690487738941e+02 -2.172816716695282082e+02 -2.214275064979331091e+02 -2.314844069107083442e+02 -3.029227237980149425e+02 -1.152382374432537745e+03 -8.065336980300654432e+03 -1.233489631215315740e+03 -3.619147616370029823e+02 -3.375505998085086503e+02 -3.371357482379555108e+02 -3.349015952482296257e+02 -3.345732157010051537e+02 -3.342117181429027823e+02 -4.707990342354763925e+03 8.137687983156805558e+02 7.962424108292796063e+02 -7.746300607024340934e+01 -2.553891607262350760e+01 -9.712353915799909032e+01 -7.519634761582571514e+01 1.007912098579845974e+02 2.239548628317189127e+01 -2.525365921565219196e+01 -5.028671879892109331e+01 -5.014048507456377735e+01 -1.558370276444221680e+01 2.416302747991436917e+01 -4.109671582353445274e+01 3.090160853149959053e+01 4.448565047835064945e+01 7.093596621803948210e+02 8.898140502399509160e+02 -3.902586458422507803e+03 -2.164286114265642311e+02 -2.209613908249055783e+02 -2.288659854476547935e+02 -4.784798977192343727e+02 -5.494250474298406743e+02 -1.399202428499398366e+03 -5.030395250002135981e+03 -4.214105085621419676e+03 -3.616131933269521710e+02 -3.367223630702106334e+02 -3.368140892515081646e+02 -3.345365734210395203e+02 -3.344080849079108475e+02 -3.346415748762462385e+02 -4.782976050780976948e+03 8.120801523777867033e+02 7.962157944448713351e+02 -2.309002094402433514e+01 -2.537934564533060211e+01 -2.586273101465759794e+01 9.853975709290733676e+01 1.006793983416492608e+02 -1.399861120936549241e+01 -6.019724426085593194e+01 -5.988037001071041487e+01 -4.629128250325086213e+01 -2.952677678420683804e+01 -1.714621538266798950e+01 -4.168832697525883191e+01 3.049610900774297306e+01 -1.295226595394594256e+02 7.815444728389310285e+02 8.896709170453713114e+02 -4.466095265557554740e+03 -4.634338337937271604e+02 -4.673617219029583794e+02 -4.750835654000344448e+02 -4.780708964753972623e+02 -5.499684029235328353e+02 -1.399624963054187219e+03 -5.030594386974677946e+03 -4.285850546780413424e+03 -1.282048105391654644e+03 -4.089436181162570279e+02 -4.090945437165189560e+02 -3.454355073985734066e+02 -3.347768319272509530e+02 -3.349096676637656174e+02 -4.782891152116981175e+03 8.098803333659822101e+02 8.504245010260210620e+02 -2.269958655298322370e+01 -2.543537098939088992e+01 1.488104796546721218e+02 9.919255329847371172e+01 5.943659257613703772e+01 2.884476161407655681e+01 -5.935451032833552887e+01 -6.004871560171969946e+01 -6.015023129088148579e+01 -5.818835586442532559e+01 -1.711407023741384847e+01 3.066875196898484290e+01 -1.436510664295358595e+02 7.195796393386841601e+02 7.916836853078322065e+02 8.855642270769384368e+02 -4.466392407005924724e+03 -4.672497514064642701e+02 -4.759956641360203093e+02 -4.757147259749416435e+02 -4.779388784170286044e+02 -5.493147700576766965e+02 -1.399510515517925796e+03 -4.483210903095433423e+03 -4.285526690111882090e+03 -1.282341497594808970e+03 -4.087773126427499051e+02 -4.090174100891680382e+02 -4.090906427614287963e+02 -4.057397673233712112e+02 -4.055996655327410849e+02 -4.798218105909904807e+03 7.751269282957862288e+02 8.494805274791899592e+02 8.267802680756428799e+02 1.751014662668212623e+02 1.500470919273082586e+02 5.168971679063987068e+01 5.320052350289052612e+01 2.897706035225165877e+01 1.914577676496860548e+01 -5.616868717330840610e+01 -9.705852680624744266e+01 -5.856782206781920053e+01 -1.756051677316409609e+01 -1.216739714568659565e+02 -1.433239163601686244e+02 7.909518002705784738e+02 8.324830684357267501e+02 8.851600865563942762e+02 -4.452497070159766736e+03 -4.677313025604070162e+02 -4.753276192393191195e+02 -4.782883409098706124e+02 -4.780727940204185415e+02 -5.502256212488717892e+02 -1.398876528200505390e+03 -4.501357297000215112e+03 -4.295183205738529068e+03 -1.282341197831084855e+03 -4.087047190478529046e+02 -4.082314137931562072e+02 -4.090207557005291505e+02 -4.058963288481348286e+02 -4.059877917039856925e+02 -4.844872160672126483e+03 7.281091869636909450e+02 7.003572315516549907e+02 9.530164425688124084e+02 9.539067933014880509e+02 1.240394936215265176e+02 1.232729250063039643e+02 5.385890695782446613e+01 4.340432334245301860e+01 4.320952219934060423e+01 -4.202928248628227692e+01 -2.336183912717562094e+01 7.249331190521771440e+00 -5.376779005314223525e+01 7.694402318022981717e+02 7.799459941080388035e+02 8.323601147351733971e+02 8.681034410010390729e+02 8.855793110900909824e+02 -4.442977337640149017e+03 -4.753801450240439408e+02 -4.759501775699436621e+02 -4.777062788028905516e+02 -5.500060727144186785e+02 -1.399084826381876610e+03 -1.439943204692445988e+03 -4.510940771324796515e+03 -4.294651003133773884e+03 -1.282474393375156524e+03 -1.258374707999111479e+03 -4.085785413283623484e+02 -4.087437826007291051e+02 -4.056991092436287545e+02 -4.062303963664514868e+02 -4.789854193198523717e+03 -4.898656637928794225e+03 6.995557372190320393e+02 9.521278246871047486e+02 9.535721921500924054e+02 9.734033579580362812e+02 9.729030690363953227e+02 9.026335056241887287e+02 4.302357537763266038e+01 2.960504155331205567e+01 4.169289530019137402e+01 -3.361976120698198400e+01 6.819059047499185908e+02 8.665826421858542972e+02 8.651617116388625846e+02 8.867679403018928497e+02 9.118357627512568797e+02 9.081978280699918287e+02 9.092668301303933731e+02 -4.442863682749223699e+03 -4.756128618612033279e+02 -4.753114574612183105e+02 -4.784449341481018791e+02 -5.496422377182675518e+02 -1.398688481527385193e+03 -1.479596456417754553e+03 -4.511011103678596555e+03 -4.411478501927550496e+03 -1.285501321858373785e+03 -1.258473070597267224e+03 -1.257829400240930454e+03 -4.082618118783893237e+02 -4.085640245597550688e+02 -3.647093388860199070e+02 -4.718167659020319661e+03 -4.739709511896016920e+03 9.871953520691480435e+02 9.461096422869883327e+02 1.047676050439917844e+03 1.047545158092738575e+03 1.044573679162318967e+03 9.748657284198461639e+02 9.507537406909464153e+02 9.549143977941306503e+02 9.622575871567931927e+02 8.869112553492645930e+02 7.540636209479173431e+02 8.665948225161681648e+02 9.455753436319766934e+02 9.485622878805750133e+02 9.333857073903136552e+02 9.567115507805777952e+02 9.612098323583659294e+02 -4.410185035904773940e+03 -4.751033539566003583e+02 -4.781577809261206085e+02 -5.494848333976506183e+02 -1.399495357315514866e+03 -1.440181042297910381e+03 -1.497640536734468697e+03 -4.510677937519837542e+03 -4.411146166932598135e+03 -1.295536739725856705e+03 -1.282427342237906714e+03 -1.258388468963073137e+03 -1.258225926879319559e+03 -3.675622461919382431e+02 -3.646848861071825922e+02 -4.790837840033383145e+03 -4.565190094311130451e+03 9.867445614900169630e+02 9.551964699789161841e+02 1.055270907765661150e+03 1.047417068533172369e+03 1.044395214258699752e+03 1.021998896987676630e+03 9.546688130430026149e+02 9.630823069464066748e+02 9.627879586126497315e+02 8.281011781918784891e+02 8.649618260457073120e+02 9.474477848278656893e+02 9.479687748471003488e+02 9.751275397804527074e+02 9.566988284527411679e+02 9.567894751129894075e+02 9.771279545244885867e+02 -4.457136139706921313e+03 -4.343397313698876587e+02 -5.501690677385121262e+02 -1.399240921395703481e+03 -1.399158249319647439e+03 -1.479354524216134450e+03 -1.508013773619314861e+03 -4.510955334952593148e+03 -4.411172293718645960e+03 -1.317532998073495492e+03 -1.291768723747291233e+03 -1.282358254131165495e+03 -1.216595060446235948e+03 -1.216851076861635875e+03 -3.652805333580972160e+02 -4.515724737073957840e+03 -4.474933898181840959e+03 1.161557284368863520e+03 1.080378919305976297e+03 1.067853376219524989e+03 1.147303659564615600e+03 1.130703143732317130e+03 1.121931227907169614e+03 1.054536913372225399e+03 1.101666003338676319e+03 9.275216103959243128e+02 9.284113984143247080e+02 1.040559618911096550e+03 1.047623711658448883e+03 1.048539688431026661e+03 1.044226677909791988e+03 1.028733664302332045e+03 1.051561390066565991e+03 1.127334525759164762e+03 -4.395083650113973817e+03 -3.773112098165689758e+02 -1.332141250647640618e+03 -1.332090137786784226e+03 -1.453067301210955065e+03 -1.481756483691984386e+03 -1.481728236263717235e+03 -4.485166925759957849e+03 -4.410824922359449374e+03 -1.429890401179736500e+03 -1.297902764057530021e+03 -1.250781065775069692e+03 -1.241443802930630000e+03 -3.676599554624880852e+02 -1.912976517048071230e+02 -4.515265819950960577e+03 -4.546729394069187038e+03 1.161446047193925324e+03 1.162277383755116944e+03 1.106246458588512041e+03 1.132299609390078331e+03 1.131027926983258112e+03 1.126751548605577000e+03 1.134269316875211871e+03 9.280039175146627031e+02 9.276735343020567370e+02 9.276504946155138214e+02 1.071628490615350984e+03 1.046904845361553726e+03 1.046920691114543388e+03 1.039735124874560597e+03 1.085691595309388049e+03 1.136586636529350926e+03 1.136644292735084946e+03 -4.375141738394479034e+03 -3.767585549122020439e+02 -4.579942370886254253e+02 -1.412425821167895947e+03 -1.440652750146011158e+03 -1.480925347820575553e+03 -1.485354362714256922e+03 -4.601159723153193227e+03 -4.411333313599345274e+03 -1.429432830922831954e+03 -1.298172397306847415e+03 -1.250321051123064080e+03 -4.009330538457905959e+02 -2.175006495776566453e+02 -1.932290728273476361e+02 -4.515087096321068202e+03 1.090044853474055571e+03 1.137426822044124265e+03 1.159878617931024337e+03 1.145456157687662653e+03 1.145511435833790074e+03 1.157454029154137515e+03 1.101739973281402399e+03 8.947783949059074757e+02 8.631877473663838600e+02 8.626878628507016629e+02 1.000413293286482030e+03 1.070858635661082644e+03 1.125402247561137074e+03 1.082078219604047717e+03 1.155759213340003043e+03 1.167134671257818809e+03 1.137145289483851684e+03 1.065243883412124205e+03 -4.374912585126370686e+03 -3.709528960956445758e+02 -4.666933346477594000e+02 -4.949394829181447903e+02 -1.440643375559693141e+03 -1.481162724010519014e+03 -1.506879090978718978e+03 -4.600637011501202323e+03 -4.411171213386857744e+03 -1.430116594893437878e+03 -1.366288596777429120e+03 -4.114157168987069895e+02 -4.007310217770328791e+02 -2.269106584360353907e+02 -2.073144228514767065e+02 -4.539092953721477897e+03 1.066084067653337570e+03 1.137486190027122802e+03 1.160102369758758641e+03 1.145382398982225368e+03 1.104428664385312459e+03 1.101521498261674196e+03 1.185370720178686724e+03 1.011547909530749735e+03 9.792529204028950289e+02 1.019633526056292681e+03 1.091549432031337801e+03 1.122505211756221343e+03 1.199014231120290560e+03 1.115343195098697606e+03 1.156344302222682472e+03 1.159147817239394499e+03 1.136237808291120018e+03 1.064816927066391600e+03 -4.375339617048353830e+03 -4.113260615144062626e+02 -4.856575360571158058e+02 -4.948718452902662648e+02 -5.672831487748180734e+02 -1.446982853851452319e+03 -1.619602429480586352e+03 -4.600622411886581176e+03 -4.410806193806351075e+03 -1.388392340727875307e+03 -5.167915701062385097e+02 -5.173329297072749569e+02 -2.412944153701571111e+02 -2.268618677613456214e+02 -2.167186629580744750e+02 -4.610961840479400962e+03 -4.642892572703878614e+03 9.939953248704558746e+02 1.088356665238821051e+03 1.047254171729697646e+03 1.040537441157834337e+03 1.038263101165654916e+03 9.396021676320884808e+02 9.093161104579802156e+01 1.704243813130760543e+02 1.489539548649283063e+02 4.173786278086986954e+02 1.368941083884553564e+03 1.406465449066058909e+03 1.412947565894596437e+03 1.361409353933612692e+03 1.405037795497183879e+03 1.311536623906765726e+03 1.310885308990421890e+03 -4.170131317202205537e+03 -1.927196427267210765e+02 -1.998685457372550900e+02 -2.400604285928431807e+02 -2.596545092312161387e+02 -4.364817630248624596e+02 -1.332119144472186008e+03 -4.354662899571780144e+03 -4.411131463010989137e+03 -1.388472392284988700e+03 -5.170504484209743623e+02 -3.436122515437486413e+02 -3.427472430545365114e+02 -2.446401596265852447e+02 -2.167147238035879582e+02 -4.622579714161332959e+03 -4.651338543495816339e+03 1.016748031203555229e+03 1.047301752314810528e+03 1.051524206180122292e+03 2.045408040992230383e+02 1.420399988590496321e+01 1.544779232249023693e+01 1.314721008883404920e+02 1.488504139256586143e+02 1.484163953960303672e+02 4.176175608459764703e+02 4.433426518661973432e+02 4.856486355718601544e+02 4.942255420199532523e+02 1.257692878059315490e+03 1.364171591180332143e+03 1.332958865829585193e+03 1.242506997923249173e+03 -4.197528943287534275e+03 -1.826967452014118010e+02 -2.002777048826496866e+02 -2.144743333299248604e+02 -3.553708547779262972e+02 -3.649826077539438529e+02 -1.332463857104818999e+03 -4.354672009789752337e+03 -4.410541238474507736e+03 -5.390130259268951249e+02 -3.433565895014557441e+02 -3.428494592464405741e+02 -3.434886128852632510e+02 -3.429756919711250021e+02 -2.379654976019960202e+02 -4.714006099217817791e+03 -4.742604512593511572e+03 8.754736762437570405e+02 9.471559917247398062e+02 1.049545425385569501e+02 -6.148895214494963568e+01 -7.141106466645985051e+01 -4.128918264046696862e+01 4.924878250988839312e+01 2.748903487686618519e+01 2.752937365899239808e+01 3.348428790284020238e+02 3.641266965705917755e+02 4.044302969743291669e+02 4.039749903477995190e+02 4.133776713035745161e+02 1.177814179995509448e+03 1.160401078729448500e+03 1.179432861416198648e+03 -4.263429183076523259e+03 -2.162067935100390059e+02 -2.268672608609463737e+02 -2.401250477068058728e+02 -3.423394968192034753e+02 -3.816544353646598324e+02 -4.854091469213704499e+02 -4.380525294920993474e+03 -4.370501413918957041e+03 -3.649697301027669027e+02 -3.431747800695354726e+02 -3.433939457587929951e+02 -3.428649728232559823e+02 -3.325798547319839145e+02 -3.327912147536295606e+02 -4.738138560073934059e+03 -4.720642249176104997e+03 8.750620320171177582e+02 3.027094767693574795e+01 -6.921456014747803920e+01 -7.124924699617938018e+01 -3.019310867624293238e+01 -2.770233466865402150e+01 -4.347153339894578039e+01 2.700303141191475476e+01 2.720714823456770404e+01 2.917760817830447309e+02 3.247324314666738587e+02 3.641140775397972789e+02 4.037412125632476432e+02 4.046041563227285565e+02 2.057518780995059444e+02 1.089405378524627849e+03 1.201759129539434525e+03 -4.263138322323281500e+03 -2.156899045057280659e+02 -2.438584036850568282e+02 -3.424478340722031930e+02 -3.425542016426379064e+02 -3.422892361733546522e+02 -4.132287462588894869e+02 -4.340180997533107075e+03 -4.370387269428308173e+03 -3.654602880332821542e+02 -3.434219363017041928e+02 -3.433142577634810095e+02 -3.427801705051308545e+02 -3.326953620711470876e+02 -3.327988030097437218e+02 -4.829703853547569452e+03 -4.877325551072493909e+03 -1.734900597912617526e+00 -1.409857676909084319e+02 -6.101644913356592781e+01 -3.042801279436158879e+01 -3.027879883122114180e+01 -2.710747049344504589e+01 -5.221385101660278849e+01 2.743067300193403213e+01 2.339154258675997156e+01 2.697426693920324396e+02 3.246109820908862389e+02 3.563823543576780253e+02 3.548628309120213657e+02 3.237984376072538453e+02 3.027995309796709194e+02 2.058363426225473347e+02 1.129815191071237450e+03 -4.263504018238760182e+03 -2.375371090358609081e+02 -3.420728253347845111e+02 -3.420671212237576242e+02 -3.425427245704426014e+02 -3.427944143546277473e+02 -4.045252311535979857e+02 -4.339647763055639189e+03 -3.346769020182273835e+03 -3.651898805490790210e+02 -3.434822084990693725e+02 -3.429288001196709956e+02 -3.433184201129918733e+02 -3.324252984563569839e+02 -3.332217626312931316e+02 -4.844405712026655237e+03 -4.875404300135256562e+03 -8.590485561280571858e+01 -8.359170961889297757e+01 -3.385092720666997224e+01 2.796964764285210236e+01 9.834048069613261589e+01 1.468430479459199489e+02 1.247033245721487589e+02 1.173938435134014497e+02 1.968475808908547720e+02 4.438336439184539017e+02 4.991475508314416629e+02 5.304951643862935953e+02 4.872369588705840897e+02 4.975244340923640607e+02 4.373765007047368840e+02 4.556760364941452508e+02 1.292289392265188781e+03 -4.359764556340926902e+03 -3.326357914656081789e+02 -3.318065210546285471e+02 -3.422166852580500063e+02 -3.426303934383168439e+02 -3.427649261180941380e+02 -3.645476412401966400e+02 -3.466006405945232473e+03 -3.346394146447247294e+03 -3.653577364475063973e+02 -3.432583630266269097e+02 -3.436548837687543596e+02 -3.431609878829319769e+02 -3.331363870784653614e+02 -3.329853727786027093e+02 -4.844211766283163342e+03 -5.739638743168466135e+03 -8.300541700980635085e+01 -3.446695778449099379e+01 -4.406346240619711097e+01 2.771505398720989177e+01 2.757451512725128140e+01 3.094017569222675945e+01 7.158128214472482398e+01 1.175923774200255849e+02 1.357071734157856042e+02 4.460225180649522940e+02 4.901210288379124904e+02 5.306924924418336786e+02 4.880246425715520218e+02 4.259614846062345350e+02 4.374051292616028945e+02 4.374405382542874463e+02 4.142837702751062352e+02 -4.460690491817398652e+03 -3.318544098026076767e+02 -3.327155073366749320e+02 -3.426917528096066121e+02 -3.420720611149424712e+02 -3.426008246279044442e+02 -3.648441820174922441e+02 -3.385893720543996551e+03 -3.346808472359110965e+03 -3.652895081749300630e+02 -3.431225712670964185e+02 -3.430114882582864198e+02 -3.331022870115144769e+02 -3.325116769028066983e+02 -3.331980476459642659e+02 -4.839785429813256087e+03 -5.739589168180352317e+03 -4.866241315262201539e+01 -3.429700178812027644e+01 -4.466897891983543190e+01 2.790486195330886687e+01 2.733086194590273976e+01 9.721141907476346944e+01 1.202808245243780476e+02 1.147083859023020267e+02 1.146619864458547084e+02 2.139856302949953317e+02 2.223710592383713731e+02 2.433302811438445872e+02 2.408103461589101641e+02 1.790643993913356269e+02 1.904193665163122375e+02 1.591666725380519267e+02 1.558574274399493049e+02 -4.706936802365592484e+03 -3.320853933689732003e+02 -3.323137300303994834e+02 -3.421213012736174619e+02 -3.424346931320292242e+02 -3.424943795088676097e+02 -3.650526624448859820e+02 -3.345859180095178090e+03 -3.346748416615591850e+03 -3.649187067454309386e+02 -3.434409267863615014e+02 -3.430134624255189806e+02 -3.329889463465594872e+02 -3.328709424848406684e+02 -3.291638772503768564e+02 -4.839889440128460592e+03 -5.695891856950747751e+03 -4.808068158582461393e+01 -4.783967307931623480e+01 -3.439688789491682286e+01 -3.377661547177356027e+01 3.737381074963838046e+01 8.113321228419731312e+01 1.306475404092464032e+02 1.251281618127995472e+02 1.248149987148252507e+02 1.405576295109725891e+02 2.050211408731835263e+02 2.538191260750490983e+02 1.795208154620234779e+02 1.798642504183990525e+02 1.554125188940750490e+02 7.408119276745392767e+01 1.769275601886822074e+02 -4.706331030466701122e+03 -3.323653573317258179e+02 -3.325521253332094602e+02 -3.324844612032792952e+02 -3.428922663025433621e+02 -3.423162828946437344e+02 -3.652162941072313060e+02 -3.345904760885747692e+03 -3.346459930502697716e+03 -3.652987044032261679e+02 -3.434698773765700253e+02 -3.435818122499150604e+02 -3.325698320515186879e+02 -3.327192213449326914e+02 -3.284372416024633594e+02 -4.839366032466457909e+03 -5.687393886493244281e+03 -5.100271606839898197e+01 -4.820958772510110890e+01 -4.837745992609007573e+01 -3.378844027310881160e+01 1.079681664287295604e+02 1.307572964450265545e+02 1.280558611850501904e+02 1.282588955279201457e+02 1.175656945720711377e+02 7.843489034755052103e+01 2.052925304883739273e+02 2.672185580162361589e+02 1.794899245305900024e+02 1.799157822555675637e+02 1.555838162656485792e+02 7.163010176800037243e+01 1.368974404346206200e+02 -4.045200436471240664e+03 -3.326007601483518101e+02 -3.325954125047411480e+02 -3.318189809796552936e+02 -3.421628301650492858e+02 -3.425590714505991059e+02 -3.646460353307138575e+02 -3.932892923333555245e+03 -3.666198836161419422e+03 -3.656850195028891903e+02 -3.426777976197338376e+02 -3.428730191998452028e+02 -3.329128884381092917e+02 -3.288652884948212431e+02 -3.291610904340202524e+02 -4.725308240083296369e+03 -5.646155332660410750e+03 -5.038265610016580354e+01 -4.854872641052885029e+01 -4.819191585264211852e+01 3.960995673063590772e+01 7.806020094408710008e+01 1.307762499524256441e+02 1.275349873563489922e+02 1.280612257745620468e+02 7.926793779035790521e+01 7.923069622115698962e+01 1.298530436970303583e+02 2.452119536035116880e+02 1.940880154324893567e+02 1.407794505663492544e+02 7.452074175428896297e+01 7.196281006452997531e+01 1.374013140616603152e+02 -4.023807079974171302e+03 -3.322358065931767328e+02 -3.325756894878643948e+02 -3.326173787687284857e+02 -3.421392858252547171e+02 -3.423981903209441953e+02 -3.644114247863382161e+02 -6.991468947615882826e+03 -6.741691509990980194e+03 -3.654316590495440664e+02 -3.655178027490283625e+02 -3.325169139192088323e+02 -3.284392341705474223e+02 -3.288929691934567359e+02 -2.875033722632026070e+02 -1.433611103493040446e+03 -4.796599739056404360e+03 -5.057187029686312485e+01 -4.841417018780531833e+01 2.910479577069759927e+01 6.335453591035632570e+01 5.538617123525859398e+01 5.631268593547951440e+01 5.613927777468393998e+01 7.124588804920100493e+00 6.398227265803241970e+00 6.830611927545413131e+00 3.744091916966441147e+01 1.733135618699635359e+02 1.509746003540514891e+02 6.332292106821398647e+01 7.442325552451785597e+01 9.633339434122670752e+01 -4.024378817130237621e+03 -7.397720905160604161e+02 -3.322482398227115254e+02 -3.318710745550616821e+02 -3.325807421111023814e+02 -3.429021859975671305e+02 -3.426760241658374184e+02 -3.645386603017722109e+02 -4.505895801881060834e+03 -2.374684248251934605e+03 -5.393728588382864473e+02 -5.392011968004450182e+02 -5.065895573087446451e+02 -5.023656341733099566e+02 -4.525307355564610248e+02 -4.589783506208566450e+02 -1.361580458047310913e+03 -4.900265774456035615e+03 -2.251650777421367593e+02 -1.439322305164444344e+02 -1.057137790819745362e+02 -1.099015355817609816e+02 -1.327396485580611909e+02 -1.179173602828428358e+02 -1.586535808678525257e+02 -1.673068996121271823e+02 -1.670520725187160735e+02 -1.675716197924086543e+02 -1.366468443897753957e+02 -1.220120334669754243e+02 -9.626207158224723059e+01 -9.653996451840443171e+01 -9.971003062288846763e+01 -7.774329643016422153e+01 -4.197857765879997714e+03 -4.220558478686093054e+02 -3.113781399668430367e+02 -2.615776971718610184e+02 -2.616440837053851851e+02 -3.325977358627048375e+02 -3.425935248019471260e+02 -9.512312693378482891e+02 -4.657514092357538175e+03 -2.375587793964350567e+03 -6.101446411671486203e+02 -5.391638450562817297e+02 -4.934105809510700738e+02 -4.525621660924979324e+02 -4.136902188593178948e+02 -4.024835374898524947e+02 -1.321960949994462680e+03 -1.617013050368132326e+03 -5.665505284867035698e+03 -1.086601502640184549e+02 -1.099241055518111523e+02 -1.104004293543054303e+02 -1.355749697189056349e+02 -1.731498987453439611e+02 -1.671278165584288047e+02 -1.675010444605585747e+02 -1.669066018786754455e+02 -1.673625818950344240e+02 -1.857573877034718635e+02 -2.131499083222364277e+02 -1.719252153552349682e+02 -8.574832040298254299e+01 -6.420757462706235685e+01 5.894104815624314142e+02 -6.675166412602204673e+02 -4.128803531171109853e+02 -2.414973915263770152e+02 -2.616536276036993058e+02 -2.616894917893689012e+02 -2.619612134187281072e+02 -2.724579842584774383e+02 -9.759892357128762796e+02 1.180971363970010799e+02 -2.375211856405616800e+03 -3.884709051324189204e+03 -5.156593573309781959e+02 -4.135238820829198971e+02 -4.131492181935845451e+02 -4.109615620742858368e+02 -4.024286531322576934e+02 -1.313000376886700224e+03 -1.243362519586549524e+03 -1.500594007374145349e+03 -4.237413145891718358e+01 -1.100437861996919082e+02 -1.327285796422554256e+02 -1.758744846023774073e+02 -1.727525485710383748e+02 -1.814243239968376713e+02 -1.672182279435786256e+02 -1.670677045199534234e+02 -2.201158913771163554e+02 -2.528891265282905749e+02 -2.135070502965188268e+02 -2.040232318751868377e+02 -6.141422181487774168e+01 5.229515090065320919e+02 -8.999453140225326706e+02 -5.957980465407748625e+02 -3.421682076175392240e+02 -2.409698083247830880e+02 -2.405573115992020519e+02 -2.621810207954819703e+02 -2.618351357666936678e+02 -8.591329130197840414e+02 -4.435858602471984341e+03 1.787804515113624291e+02 -2.326200059050719119e+03 6.546850008119878339e+02 -5.056260010809914434e+02 -4.136907176202947767e+02 -3.861228268512817863e+02 -3.783773127642786562e+02 -4.024791652966560491e+02 -1.313180828718062912e+03 -1.233513118269485403e+03 -1.225015679685587429e+03 -1.515415965274026121e+03 -5.645237961352386264e+03 -1.861025548109171837e+02 -1.861876600885721018e+02 -1.912256990174379894e+02 -1.916943174590576291e+02 -1.918352521151400651e+02 -2.341837348671756729e+02 -2.937186790961839051e+02 -2.636070444621890374e+02 -1.872449924130177408e+02 -1.903207084408371941e+02 4.793173097987575488e+02 -6.644718014972499986e+02 -5.920826757194546417e+02 -5.024749597040290041e+02 -3.420235344275436660e+02 -2.405963901634967215e+02 -2.408622829775561627e+02 -2.410793828031310966e+02 -2.617940914819527620e+02 -8.954582006228907858e+02 1.037368833952690466e+03 1.788132139306154329e+02 -2.374667549866684112e+03 6.997979698430128792e+02 -4.036290872751295410e+03 -4.595732603482513809e+02 -3.781904941491205818e+02 -3.666292499498696884e+02 -3.672449291421393127e+02 -1.186349677135623551e+03 -1.181010006710328526e+03 -1.220245775319376435e+03 -1.229568576527761934e+03 -1.273541701491067442e+03 -1.578097210555963102e+03 -5.752776946936755849e+03 -1.913229099182196933e+02 -1.920633059151184625e+02 -1.918210512598682271e+02 -2.479360205800317374e+02 -2.579118310027392340e+02 -2.283048811209012285e+02 4.389856409149978163e+02 -1.026315391479851087e+03 -7.572430525236005678e+02 -5.123893149887215941e+02 -5.127714565157142488e+02 -5.027390058141173199e+02 -3.289112723768425894e+02 -2.408441861614930417e+02 -2.414188129055917784e+02 -2.411894015852281257e+02 -8.727283102186399901e+02 -4.425624102877887708e+03 1.790961308528374332e+02 1.087034716582248990e+02 -2.329658822959720055e+03 6.906698626928067597e+02 7.347023190271515887e+02 -3.740451699096980519e+03 -3.672255852846928406e+02 -3.672195083866227492e+02 -2.722171754826927668e+02 -4.763957672366449287e+02 -4.871456065396204735e+02 -4.870109391048822545e+02 -4.866265188012453109e+02 -4.897372680167903241e+02 -5.092910465681762844e+02 -5.179941783604634793e+02 -5.235296414735712460e+02 -5.233625650880852618e+02 -5.738436580421157487e+02 -6.309113526930345870e+02 -6.308887189325677127e+02 -5.867019822149660513e+02 -5.448688896119489300e+02 -5.479218217207026100e+02 -5.510681952777686092e+02 -5.082075831768026433e+02 -4.323389194604615682e+02 -4.220428225658019414e+02 -2.477746395929693506e+02 -1.469598104601411421e+02 -1.611324003877593611e+02 -7.715213059306414607e+02 -4.055280352833933193e+03 2.789785155519813316e+02 1.892384344308140669e+02 1.484652547709821704e+02 -2.329627406920706562e+03 6.859958676955918691e+02 7.338636864454560964e+02 7.788684327595262857e+02 -3.721182648076543046e+03 -2.689284289531701120e+02 -2.503740847371858251e+02 -4.769830659035632721e+02 -4.866670311979527810e+02 -4.874575052264710848e+02 -4.901265609388506732e+02 -5.120765209544047138e+02 -5.174907929801561295e+02 -5.174446004716228344e+02 -5.144604054989665656e+02 -5.781695069040514454e+02 -6.309262617191520803e+02 -6.308616369991898409e+02 -6.305893601954978749e+02 -6.005343985994927607e+02 -5.448693731107672420e+02 -5.486207488778047718e+02 -5.504210871799225515e+02 -5.284843862864963739e+02 -4.328633585262099928e+02 -4.326404953706969536e+02 -2.484906037431473749e+02 -1.464622074857245764e+02 -7.575730307604569589e+02 -4.055182809235981040e+03 3.218968254379375935e+02 1.999708316166264694e+02 1.891490869008309517e+02 1.894155010028469235e+02 -2.305314762710648665e+03 6.973246317999645498e+02 6.998772345654523406e+02 7.782550491056697410e+02 8.810649083822913781e+02 -3.604632154439570513e+03 -2.510511766304360322e+02 -4.770198696857638652e+02 -4.867676409814042131e+02 -4.870036959551773634e+02 -4.894261692977059397e+02 -5.115500035081540204e+02 -5.199412703816045678e+02 -5.175542657653608103e+02 -5.814013651949885571e+02 -6.303193640978795429e+02 -6.302680804337942391e+02 -6.302530828982482944e+02 -6.307371717704843377e+02 -6.004151330125754384e+02 -5.592123615398741094e+02 -5.484661682895831518e+02 -5.513560203020317658e+02 -5.290931868445244390e+02 -5.081518943319255754e+02 -4.322675001861273358e+02 -2.485746888120314964e+02 -7.576440106567622479e+02 -4.052906122462416533e+03 3.360154353800752460e+02 2.429261192314425273e+02 2.201737740448210445e+02 1.998075705768706030e+02 1.890741292414253110e+02 -2.319085924638771758e+03 6.970285050893586458e+02 7.078287383388864100e+02 8.355566374233985698e+02 8.556394993887621467e+02 8.944950313565668694e+02 -3.604613212928150915e+03 -5.468389201230738763e+02 -4.869213052284997048e+02 -4.901727259577191944e+02 -4.898958394157122029e+02 -5.202957968024676347e+02 -5.200971677441754082e+02 -5.882872160732357543e+02 -6.309705018185775316e+02 -6.301834526932447034e+02 -6.308259711465144619e+02 -6.305451748037669404e+02 -6.304322042692248260e+02 -6.004926661757954207e+02 -5.591251625788434012e+02 -5.649577201785233456e+02 -5.506523077894315747e+02 -5.503895315883909234e+02 -5.289573930103615567e+02 -5.319774221688417128e+02 -8.586750465655746893e+02 -4.052457306976662949e+03 3.361400785525841002e+02 2.568198060277370587e+02 2.567653797723068578e+02 2.200061278787985373e+02 1.990136685610868312e+02 1.893620935819759268e+02 -2.329920485515710425e+03 6.748719983503957565e+02 7.931863119418507040e+02 8.458612399178898613e+02 8.464382081513331286e+02 8.465367869409280956e+02 8.947500941551631968e+02 6.587015506078943190e+02 -5.575537479409598518e+02 -4.894606894461159641e+02 -5.121407136585188482e+02 -5.198869146940461405e+02 -5.942754492318604207e+02 -6.340115440059738603e+02 -6.305122963796009117e+02 -6.301798384529893156e+02 -6.309099207766591917e+02 -6.303156735183898718e+02 -6.308633802395552266e+02 -5.998840533209165642e+02 -5.587617041143065535e+02 -5.646126319027098361e+02 -5.650621452713999133e+02 -5.748773130882597115e+02 -1.139926608317142609e+03 -1.129402987492448574e+03 3.065149993817723839e+02 2.659616114712355852e+02 2.568197549634977008e+02 2.569113190873679855e+02 2.568898071130960261e+02 2.346573253707581159e+02 2.200773280206708762e+02 1.896793377592270815e+02 -2.319476365165373409e+03 6.722578144755038920e+02 7.818573143235585121e+02 8.108399488615669952e+02 8.221929452160338769e+02 8.219776843165784612e+02 8.466704276675875462e+02 6.100780675384143024e+02 6.556893959142088306e+02 6.561249888905789476e+02 5.045663816209470497e+03 -5.971833410051295914e+02 -6.363124167621247125e+02 -6.336843677291092263e+02 -6.307960266690416802e+02 -6.304230021590119577e+02 -6.301514460644687006e+02 -6.308829124666751795e+02 -6.305254129738124220e+02 -6.003483889425084499e+02 -5.592756228300544308e+02 -5.895604054644517191e+02 -1.187198462254627657e+03 -1.186710905303415984e+03 2.545584509709526699e+01 -1.163101772647529515e+02 6.968093965404673895e+01 2.564241133551038274e+02 2.564603364949609841e+02 2.567801488762465851e+02 2.568456394684972679e+02 2.343342567500836537e+02 2.343998100133994456e+02 1.990504445128827911e+02 -2.317032760088861778e+03 7.849420592598371513e+02 7.885170450723139766e+02 7.882999328050739223e+02 8.112601080408886673e+02 8.104301369264468349e+02 8.111883753538828614e+02 5.748199842188628281e+02 5.833564686095820662e+02 5.833738553969636769e+02 5.614484901400268200e+02 5.080441276173564233e+02 5.096258620979634770e+02 3.790525226819964701e+03 5.005872423617486675e+03 -6.307845874576389633e+02 -6.547103109279580622e+02 -6.657148875990031911e+02 -6.659369076839844865e+02 4.413741602012139992e+03 1.379407440552628259e+03 -1.059625222492917196e+01 -1.524322913792139218e+02 -1.613789886109906320e+02 -1.618307197951594958e+02 -1.253636941002568506e+02 6.934508449935788121e+01 1.845903127987993457e+02 2.567602871694196551e+02 2.571418446130483062e+02 2.562555075048084063e+02 2.347070293293256498e+02 2.341785653979951860e+02 2.340117196211510020e+02
-1.544694264285035068e+01 5.128606717500045988e+02 5.125330940749307729e+02 5.391626729389464572e+02 5.391005844198327850e+02 5.394819938424601560e+02 5.393958352077877407e+02 5.391286237904836298e+02 -9.974666467722654772e+01 -1.074005254604344088e+02 -1.073310818294647504e+02 -1.079297476221319414e+02 -1.025265863369743329e+02 -1.343113184206916344e+01 1.969087150897909453e+02 2.141554580924000390e+02 2.248641495725482002e+02 2.245431088013039869e+02 2.250921805481450804e+02 -5.951729257552956369e+02 -1.588479252664495107e+03 -1.752403805252089114e+03 -1.909674664716144434e+03 -1.946209356157542516e+03 -1.372110789547165950e+03 -1.372194567633094721e+03 -1.009706015820854418e+03 -9.865681840763550099e+02 -3.755911208827064343e+02 -3.758372898262679769e+02 -3.753729334498704588e+02 -3.752841854103240280e+02 -3.762051109525917241e+02 -3.453676287408961798e+02 -3.034680248686323466e+03 4.905955717943230070e+02 5.124073527154949943e+02 5.386650932268095175e+02 5.394759758273278294e+02 5.388487993837613885e+02 5.392441294226641730e+02 5.388638444749605014e+02 -8.315367402725048862e+01 -5.539974665155703093e+01 4.422207916612502743e+01 1.073270201786977509e+02 1.184232954319252968e+02 1.187912883223450109e+02 2.246941860374105033e+02 2.250809334203496803e+02 2.247863314633232505e+02 2.249372682445945486e+02 -6.519331930817940020e+02 -1.577492741664204914e+03 -1.577106179959011115e+03 -1.683392966734227230e+03 -1.683467469112220897e+03 -1.666194353170413251e+03 -1.115284243492871838e+03 -9.657042201153503811e+02 -1.001223940324583396e+03 -9.870158448676611442e+02 -3.756254998924143251e+02 -3.757362304027247433e+02 -3.758142396540852701e+02 -3.753592338619307043e+02 -3.753667246154153077e+02 -4.311358459483762999e+02 -4.319605903757579654e+03 4.777095648109701074e+02 5.125461084344759684e+02 5.388511428465061499e+02 5.386184826699783343e+02 5.391185651800135474e+02 5.394920737865126057e+02 6.341037855511143562e+02 6.190405029029180923e+02 1.311135451431467231e+02 1.181731286638481180e+02 1.191208389507794863e+02 1.189654810519629251e+02 1.182676210901947087e+02 2.243045041823989720e+02 2.246076183897955900e+02 2.247987371021349929e+02 -7.012698045554689088e+02 -1.577358928012024990e+03 -1.577211179945187723e+03 -1.576999856015707337e+03 -1.577693640333315670e+03 -1.683769721463417227e+03 -1.654296180501979507e+03 -1.092518696206340337e+03 -7.526112667981609547e+02 -7.432826389722267777e+02 -6.238701214623732767e+02 -3.676965463796261133e+02 -3.756231226659849085e+02 -3.755489346843036742e+02 -3.753834021267429648e+02 -3.759650014628505801e+02 -4.418529253404483370e+02 -4.332140346067434621e+03 4.774566666261679870e+02 4.896350469280344555e+02 5.388562600094685422e+02 5.392245889985546228e+02 5.862807775852950272e+02 6.333873014029348951e+02 7.437771049246359780e+02 7.018648820939408779e+02 4.299234976734376232e+02 1.187430810323415500e+02 1.186434200357208368e+02 1.188240114107923233e+02 2.242920993254386133e+02 2.244290098323364475e+02 -8.140039243114260898e+02 -1.576780107163557204e+03 -1.576894892240738045e+03 -1.577336427698130592e+03 -1.576827966889616619e+03 -1.576935599609364090e+03 -1.577623795791062548e+03 -1.654647849117046917e+03 -1.644189921150631108e+03 -7.420280922638396532e+02 -7.415926316053966048e+02 -7.190163061569526235e+02 -4.573152276683593982e+02 -1.558316823623683831e+02 -3.289960348343383316e+02 -3.705248164589181670e+02 -3.756783043858245605e+02 -4.157046687882307197e+02 -4.648781634522216564e+02 -4.332067148047671253e+03 4.775343320280255170e+02 4.902485898643328142e+02 5.393967798216400524e+02 5.871848576191357552e+02 6.915220403617066722e+02 7.574537660879329906e+02 7.653148225748501545e+02 7.059452798517177143e+02 4.307111362654011373e+02 1.408792736195613031e+02 1.191048680311680954e+02 1.184660771404629855e+02 2.243622683114498670e+02 -8.707819363407495530e+02 -1.577303774597008214e+03 -1.577291017239981102e+03 -1.577503292069281997e+03 -1.577703676195010303e+03 -1.577706389340471560e+03 -1.577602989469673958e+03 -1.548122598902848040e+03 -1.643780103677701845e+03 -1.292450908363275857e+03 -7.411763320911732080e+02 -7.191444237042391023e+02 -7.191086853161792760e+02 -4.460598327631482789e+02 -1.184944912372705517e+02 -1.461216307629869391e+02 -3.282298789564094932e+02 -4.099993218373405739e+02 -4.154365453917073410e+02 -4.648121354956175537e+02 -4.332565068579053332e+03 4.773516073301909159e+02 4.896867471257413058e+02 5.637499805064730936e+02 6.339493219952518075e+02 7.582232460264870042e+02 7.652784314929418770e+02 7.659054902332935626e+02 7.051913935139136811e+02 6.904957608306534667e+02 4.307417996304344570e+02 1.182670646693229770e+02 1.183526789868401892e+02 -9.202160071869210469e+02 -1.577458314188637360e+03 -1.577082860272251764e+03 -1.577067807510645252e+03 -1.577460231153552286e+03 -1.576821916047570085e+03 -1.576792008743029783e+03 -1.548149351044978630e+03 -1.538012940297471232e+03 -1.185811422711351725e+03 -1.291861673596269839e+03 -7.412409772261397620e+02 -7.188242744584093771e+02 -4.581808018817646939e+02 -4.458804034714332829e+02 -1.079871469684849643e+02 -1.190302288522041607e+02 -1.855288308104825319e+02 -3.671335457782581670e+02 -4.324957726696123359e+02 -4.648111008777966617e+02 -4.332546142871737175e+03 4.770619356378575162e+02 5.250773078739916855e+02 6.105182512748566523e+02 7.456001940648153550e+02 7.658806946407806890e+02 7.657602772269821116e+02 7.653235409601671790e+02 7.051294178080938764e+02 7.039451570346129756e+02 4.299293894671754970e+02 1.408754330025823549e+02 -1.082809692401924394e+03 -1.577143445158992108e+03 -1.577474321486987265e+03 -1.576957906262320648e+03 -1.577728915265714477e+03 -1.576961741509458079e+03 -1.577421358557762233e+03 -1.548399837057238983e+03 -1.538081884335716040e+03 -1.186094861450377948e+03 -1.186584021057674136e+03 -1.292497108227514900e+03 -7.191602569043423046e+02 -7.184895960853826864e+02 -4.453542731801832133e+02 -4.454582320462059215e+02 -1.079762867649085365e+02 -1.471286483728665644e+02 -1.720601225427067504e+02 -1.947874294066456855e+02 -4.291782477723554052e+02 -4.767307496196562511e+02 -4.343150934197610695e+03 4.740621831242266921e+02 5.350253184167441987e+02 6.604670498668344862e+02 7.070338483281208255e+02 7.344653074650919962e+02 7.340056463133215630e+02 7.343969203948273616e+02 6.164599598556605997e+02 6.149833159529725890e+02 -9.657902685816775374e+02 -1.486932382067242088e+03 -1.691692881786164435e+03 -1.796667587371965283e+03 -1.904952816017495934e+03 -1.910017177497479452e+03 -1.909261724668343277e+03 -1.909840934648554821e+03 -1.881051347291211869e+03 -1.870122947122291180e+03 -1.870340294486041557e+03 -1.459797234073023901e+03 -1.301072852067904478e+03 -1.391671731692675394e+03 -7.976415201833493711e+02 -7.783977106871855085e+02 -4.962462005411358064e+02 -4.964741413981054734e+02 -1.986400276039467769e+02 -1.988065434929194737e+02 -1.984494388690780227e+02 -2.452911447633262867e+02 -2.919681414784051299e+02 -4.689024794668196705e+02 -4.398793529511705856e+03 5.155409189721769962e+02 5.980124142379307841e+02 7.061615089979105733e+02 7.116970835541425231e+02 7.282223473718598825e+02 7.343424428140043574e+02 7.230505336572996384e+02 6.173605738250985269e+02 -7.488314459793796232e+02 -1.204801570047721953e+03 -1.590902617984072322e+03 -1.883820672307961331e+03 -1.918351961563575969e+03 -1.919096214802957093e+03 -1.910130848425475278e+03 -1.910075350502087304e+03 -1.881074687215511631e+03 -1.869859761688756635e+03 -1.870475542535353043e+03 -1.518394750336523430e+03 -1.518411282842307173e+03 -1.516124077022927167e+03 -1.466441137226285718e+03 -8.179466194784729396e+02 -5.219181604664179304e+02 -4.968421277481992888e+02 -5.358599452355383619e+02 -1.981413115738285171e+02 -1.987754223741531234e+02 -2.150184012218134910e+02 -2.348440615968745249e+02 -2.461659778584873663e+02 -4.030528563160971771e+02 -4.389414803081237551e+03 4.680089122724706954e+02 5.838147396772450293e+02 6.984759373497677188e+02 7.112411070321303441e+02 7.111569918331159670e+02 7.340400829107230720e+02 7.338509053495032504e+02 -8.034467385736571714e+02 -1.192013360239997610e+03 -1.304185161357311245e+03 -1.701554320915558492e+03 -1.607509062001386610e+03 -1.913404887813489040e+03 -1.918397289257668490e+03 -1.909194125984702850e+03 -1.880585281212952168e+03 -1.870194605772751629e+03 -1.870193506714365185e+03 -1.518930973613964852e+03 -1.518756251165099911e+03 -1.518364820527617667e+03 -1.505227436953382266e+03 -1.504825378683420013e+03 -9.095169371153816655e+02 -5.526088465525390347e+02 -5.484390600880783495e+02 -5.418858283028180267e+02 -1.987708079390359046e+02 -1.986695150134165431e+02 -2.212008892349011830e+02 -2.212703197841843235e+02 -2.454305552701178215e+02 -3.267592134809509616e+02 -4.375049140434120091e+03 4.315260290392538991e+02 5.779048406285097599e+02 6.506750172518923137e+02 6.635682262295239298e+02 6.642147711466758437e+02 -7.983209035355035894e+02 -1.068200786682560647e+03 -1.184961541746051807e+03 -1.291889672790847271e+03 -1.379604098888930366e+03 -1.452463537426846869e+03 -1.607470410155010086e+03 -1.606966740719209611e+03 -1.918459195169281884e+03 -1.909456612709532010e+03 -1.869933062113893584e+03 -1.870423872175352471e+03 -1.518312189722529183e+03 -1.518759512248027477e+03 -1.518934801195330238e+03 -1.518882153787575135e+03 -1.504888190852667549e+03 -1.504698549540822796e+03 -7.777683309756860126e+02 -6.608448152724590727e+02 -5.620910061245316456e+02 -5.454098133683843344e+02 -1.983594952677818526e+02 -2.205982607453057085e+02 -2.209606773955316612e+02 -2.209214578104289330e+02 -2.607096907089541560e+02 -3.128113684416790079e+02 -4.375039885534041787e+03 4.895134755209466562e+02 5.820718389120949041e+02 6.091758317066470454e+02 6.224226526133759307e+02 -9.604740001522764032e+02 -1.179534439531259522e+03 -1.115330483744473440e+03 -1.237794576522170246e+03 -1.304688706706469475e+03 -1.384002153789281920e+03 -1.347036575379301212e+03 -1.606971934795051766e+03 -1.606716864446969339e+03 -1.912870586336770430e+03 -1.870289245354041896e+03 -1.869783101361554372e+03 -1.519058942017801201e+03 -1.519072821501658382e+03 -1.518474102334574127e+03 -1.518873924993215496e+03 -1.495910887306761197e+03 -1.505032387412919206e+03 -1.482359001319083745e+03 -7.881277468629481291e+02 -7.677435402076496302e+02 -6.039224411738248364e+02 -5.627478522611144172e+02 -2.079158481154506433e+02 -2.209704188020693891e+02 -2.259509379332665162e+02 -2.391720830675104992e+02 -2.784480262101503740e+02 -3.130438390447653205e+02 -4.299947099029323908e+03 5.229146071891942711e+02 5.832906933354397552e+02 6.091204259981567475e+02 -1.017149030716311017e+03 -1.179654554438457581e+03 -1.180423100760073339e+03 -1.162724740974821543e+03 -1.289692503605303727e+03 -1.326899708853758284e+03 -1.413441552798654584e+03 -1.346475670531924152e+03 -1.607499132234174340e+03 -1.607364101193836177e+03 -1.567639206007542271e+03 -1.850362353044796009e+03 -1.498842093090422168e+03 -1.499325444637153396e+03 -1.498863374022856533e+03 -1.498882278941224286e+03 -1.498859821022052074e+03 -1.496040191142403728e+03 -1.491062498893672910e+03 -1.493541097637361872e+03 -7.112262953461784036e+02 -7.818718342977268776e+02 -6.040609026389114433e+02 -5.721934952805751209e+02 -2.303295232474630438e+02 -2.304980545503121334e+02 -2.302970809842908011e+02 -2.525435502075187060e+02 -2.793168200200857427e+02 -3.016330043353839869e+02 -4.242457783564698730e+03 5.366364081004969648e+02 -1.162778839182011552e+03 -1.193004994580286620e+03 -1.192381841575538147e+03 -1.180454058352546326e+03 -1.180008499614539232e+03 -1.180065090506700471e+03 -1.302028002537736256e+03 -1.384851341626619160e+03 -1.413705231649567168e+03 -1.333348028853691631e+03 -1.346235942345162130e+03 -1.567879547404059394e+03 -1.547456663929696333e+03 -1.827788233135088149e+03 -1.499091500394576997e+03 -1.499302621794165589e+03 -1.498928388368743526e+03 -6.793063633214983383e+02 -4.379489376553627267e+02 -1.476258158182519765e+03 -1.493832468516836798e+03 -1.261940321069448601e+03 -7.106002457983182694e+02 -1.133077740870100115e+03 -1.024441009614400400e+03 -5.857869381206285198e+02 -2.296739082050055458e+02 -2.300397642902075290e+02 -2.388306531738674892e+02 -2.656060722986190399e+02 -2.785613321385644667e+02 -3.014708435195653351e+02 -4.251853117794860736e+03 -1.261148268244121937e+03 -1.218868610971879889e+03 -1.192658677441654163e+03 -1.192388522397331599e+03 -1.179733589781571936e+03 -1.179532411642730494e+03 -1.180124188622127349e+03 -1.310109037820435333e+03 -1.384977490154209590e+03 -1.284146280609347286e+03 -1.334136609932308602e+03 -1.307187245517523479e+03 -1.567901551293728971e+03 -1.547519691051886184e+03 -1.187689838902685096e+03 -1.493400830521102307e+03 -6.794059090856521834e+02 3.030096102190296392e+02 3.025728387997802997e+02 -4.375577886693177447e+02 -1.465245089863721432e+03 -1.522600233825833129e+03 -1.261483446844696573e+03 -6.983398807398724557e+02 -1.133430917146646152e+03 -1.024537606706051974e+03 -6.083897498127470271e+02 -2.301322105072163140e+02 -2.387534326589170917e+02 -2.529502585151164453e+02 -2.747233392162284531e+02 -2.891120278569131870e+02 -3.116509758870798237e+02 -4.238692471116908564e+03 -5.116941693253927042e+03 -1.219052758935797783e+03 -1.192263686300117570e+03 -1.192367376783724922e+03 -1.179827940131749529e+03 -1.179810404755376567e+03 -1.179904509431001770e+03 -1.599142971118383230e+03 -1.390294483428124749e+03 -1.284809880942340897e+03 -1.294242775922409237e+03 -1.307430955251018077e+03 -1.306602558631462216e+03 -1.196257790240095574e+03 -1.187304814035485833e+03 -4.941950094019387620e+02 1.970784762667905454e+02 1.968136568298105260e+02 3.259594388362838231e+02 -4.489237329591867365e+02 -1.493931281683178213e+03 -1.522540048064949133e+03 -1.262163856390403453e+03 -1.049304274823527976e+03 -1.118856837137432422e+03 -1.024174869122934069e+03 -5.999784318978039437e+02 -2.401049521501741424e+02 -2.488963301652000553e+02 -2.624391743375132364e+02 -2.745867137356930812e+02 -2.885525121110163127e+02 -3.117549307235277070e+02 -4.238990293998308516e+03 -3.314610274706539258e+03 5.600761456052367748e+02 6.089985349244140025e+02 6.095880300639825009e+02 -9.740388961609970693e+02 -1.179892301742868767e+03 -1.180162334188624754e+03 -1.598924038072227631e+03 -1.407909124337871617e+03 -1.244586593724904560e+03 -1.294241916463074176e+03 -1.306585671661438028e+03 -9.556685058322124178e+02 -1.196724611989487812e+03 -1.488725663507121624e+02 6.143856965543394608e+02 2.025670398670075372e+02 1.966628408396553311e+02 3.148319794801806211e+02 -4.544188160041484821e+02 -1.494017649282862067e+03 -1.262151548455430657e+03 -1.613544546752520318e+03 -1.027052301409291204e+03 -1.013158726260983258e+03 -1.046161807961447948e+03 -5.993487877767167902e+02 -2.488080624901741373e+02 -2.625170969677521953e+02 -2.623384170915438744e+02 -2.754339516320662256e+02 -2.882744797053999264e+02 -3.114221472827832145e+02 -4.275931287258601515e+03 -3.314863079295217631e+03 5.599908504423038949e+02 6.096940772356175557e+02 6.089216095787650147e+02 6.095185363081656078e+02 6.217479045330724148e+02 6.219286115101301675e+02 -1.216966972367638846e+03 -1.667298642472687334e+03 -1.250230344154372233e+03 -1.271653182341992988e+03 -9.159164760965943515e+02 2.354114185042250540e+02 6.319466563205442071e+02 6.405472757004527011e+02 6.143763677422203955e+02 5.080039072990189197e+02 2.190544549891475583e+02 2.946740443689828339e+02 -4.544248231666642255e+02 -1.493316799261677033e+03 -1.593523065746017210e+03 -1.613129341619698835e+03 -1.013648263925395099e+03 -9.711286070336403782e+02 -1.046357766147916664e+03 -5.944536104695710037e+02 -2.488027828932711998e+02 -2.625617860452742320e+02 -2.747068806381589070e+02 -2.750652936647936144e+02 -2.884696922812039475e+02 -3.114759060822376000e+02 -4.288766377997298150e+03 -3.319527307538458899e+03 5.599474501169449923e+02 6.093251905366781784e+02 6.094694397630968297e+02 6.097157080420446391e+02 6.220188994282982549e+02 6.222686812128763449e+02 2.079497186848325896e+02 2.516569412100828913e+02 2.449581747182398033e+02 9.085643623016553647e+02 9.088549145898900861e+02 8.928376691733128609e+02 8.924872139908836743e+02 6.410710852779086508e+02 5.350769618292749783e+02 5.350002704096104935e+02 2.435486776713393908e+02 3.631554672171774314e+02 -3.996879670991787066e+02 -1.529180740300514799e+03 -1.542341781755141255e+03 -1.563852938400453922e+03 -9.712939485196822034e+02 -9.461015430966914437e+02 -1.046594103126387381e+03 -5.913951438667810407e+02 -2.626948529666883019e+02 -2.618239591727669904e+02 -2.751276595342473570e+02 -2.885408733571174480e+02 -3.113198596393969524e+02 -3.528669887401910046e+02 -4.292077807591133023e+03 -3.319697923823164729e+03 5.600531058758648442e+02 5.861264628898998126e+02 6.094216047354121883e+02 6.093552849247013228e+02 6.219134297248206167e+02 6.224764472250067229e+02 2.484282858518308217e+02 3.142593164537030361e+02 2.452906801210842502e+02 9.024640336693344125e+02 9.084357294193457619e+02 9.149348967004262931e+02 9.156531682322630559e+02 6.633939261646834211e+02 5.344818466140746978e+02 5.235142869410965432e+02 5.466635005367958229e+02 2.569956281998039458e+02 -7.279076299685077629e+02 -1.493251881718146933e+03 -1.502550825340525989e+03 -1.466628146973781668e+03 -9.011351263595892078e+02 -9.180098567583099793e+02 -1.038610547816952248e+03 -5.916930137491549431e+02 -2.626115923286091629e+02 -2.625226283978828405e+02 -2.746040141202665268e+02 -2.888485445018417295e+02 -3.116934532732005323e+02 -4.010873874277303912e+02 -4.292629443077184987e+03 -3.343756139548317151e+03 5.588514597071605294e+02 5.862495400691748273e+02 5.866254398345149639e+02 6.096824208325432437e+02 6.094246224051647687e+02 6.504029330708958696e+02 2.617529673275205369e+02 3.460243462836650110e+02 6.217884643157560731e+02 6.104194439522315179e+02 9.418824700527756022e+02 9.420467070887551699e+02 9.284862850004474240e+02 6.776404021277132870e+02 5.605978394107592067e+02 5.687589161716221042e+02 5.825714822650865017e+02 2.933812413370030754e+02 -7.148166412206707037e+02 -1.492950760864152699e+03 -1.413001636308676780e+03 -1.399490875993703185e+03 -8.911825779442406201e+02 -8.826424596734568695e+02 -9.039786321484981499e+02 -5.768976962949284371e+02 -2.620718965977965240e+02 -2.745962076936100971e+02 -2.884720977369540833e+02 -3.112893901320090322e+02 -3.529843417392312404e+02 -4.148405605075196263e+02 -4.292424968889115007e+03 -3.343486345840230570e+03 5.539002198115189231e+02 5.597059007910597757e+02 5.866375450560215086e+02 5.859408266275204369e+02 6.384253824489459248e+02 6.506890991645143458e+02 1.444715561573915119e+00 6.976064209864182430e+02 6.223352881433572747e+02 6.154847969922844868e+02 9.405656475715267106e+02 9.418119254085705734e+02 9.292814099072879799e+02 8.203784306774285824e+02 5.689143783208621699e+02 5.827770446852790656e+02 5.824217735228795618e+02 2.788651773158786682e+02 -4.061643873589148370e+02 -1.403964785370506888e+03 -1.400188487549428601e+03 -1.388797126388100423e+03 -8.826937947465165735e+02 -8.828093017143714860e+02 -8.906889977230881641e+02 -8.102195323253201877e+02 -2.339007166772576909e+02 -2.884423213177965408e+02 -3.114240989495185090e+02 -3.111947261171839614e+02 -4.012236514859116596e+02 -4.180239206382141788e+02 -4.292322412737034938e+03 -3.344097853605186174e+03 5.346542110762661650e+02 5.552051115504849577e+02 5.597392403707917765e+02 6.148543785002309505e+02 6.153508501224773681e+02 6.510428688433778461e+02 5.126678969334762996e+02 7.515246408820580655e+02 6.933560881053206231e+02 6.766401359893352492e+02 6.890349274061039750e+02 1.000328791958109264e+03 9.768317151887338241e+02 8.804909860587764570e+02 6.283161339702098758e+02 6.894121505030071830e+02 3.378928452855408295e+02 3.382276707786749057e+02 -5.873413670184262259e+01 -1.344460035069771948e+03 -1.340980732483584006e+03 -1.363612813349346879e+03 -8.404070162318507755e+02 -8.395918226226654042e+02 -8.356172903599876918e+02 -7.733871159947215119e+02 -1.915785111418819895e+02 -2.718550153449850768e+02 -2.711513303501637893e+02 -3.893859757344481523e+02 -4.065571822196673679e+02 -4.066305756715585744e+02 -4.281061772608170031e+03 -3.343257093955439814e+03 5.112060355353419823e+02 5.536927175644677845e+02 5.840879877496105337e+02 5.883058303870683403e+02 6.382189341995307359e+02 1.002535191213446410e+03 5.128554204693969041e+02 4.907542740011274987e+02 6.935976224607707081e+02 6.940187741657139213e+02 6.972023566625914555e+02 9.842637273573365064e+02 9.770221660032680120e+02 8.882986026284845593e+02 9.026682804108824030e+02 3.383129806211383084e+02 3.386516388523102705e+02 3.383389142497900366e+02 -1.222856915116109491e+02 -1.344797280260812840e+03 -1.346447201934386840e+03 -1.372269509142916604e+03 -8.143299540408656867e+02 -8.308088303245785937e+02 -8.306682628954077927e+02 -6.619937537608021785e+02 -1.915353149486271889e+02 -2.228326797540267989e+02 -3.612635761501613274e+02 -3.783399709100823429e+02 -4.066162947577067257e+02 -4.071733082678521214e+02 -4.305247787067255558e+03 -3.343591272063024007e+03 5.115029298619229507e+02 5.531572819355876618e+02 5.835271319810798332e+02 6.061334564851913456e+02 9.627248964071144428e+02 9.890363484985780360e+02 5.129626343386530607e+02 4.331295881004871262e+02 6.667670198717245285e+02 6.863126776576654038e+02 6.763124088247303689e+02 6.756054792280800712e+02 9.754984969411261773e+02 8.619783950845766185e+02 4.961492275545024313e+02 2.832909178261904799e+02 2.830449228763301335e+02 6.119187313294147543e+02 -1.227014889187957039e+02 -1.043064116305375819e+03 -1.362926972771272631e+03 -1.348240420810014484e+03 -7.969352560988161258e+02 -8.306879175218033424e+02 -1.090749372872889126e+03 -6.620918512829449583e+02 -1.994767036872074186e+02 -2.983406926039132827e+02 -3.152201430368623960e+02 -3.781472887745292155e+02 -4.068891502416880144e+02 -4.265596413655413812e+02 -4.305223565314622647e+03 -3.343508841754224704e+03 5.112520522082450611e+02 5.599299960762306227e+02 6.045665322366533019e+02 6.065735861550492700e+02 9.581287773141776825e+02 1.069541151679568884e+03 4.866155831655635211e+02 4.067804319210947597e+02 6.667698159601767429e+02 6.864008365874734636e+02 6.762523661220146778e+02 6.466963089416184403e+02 5.667747786374189900e+02 8.710049288212570673e+02 5.196949914029232787e+02 3.076409962497354513e+02 3.484697049910694204e+02 6.094902296297963176e+02 -1.538009269140552249e+02 -1.053003694359426618e+03 -1.377112236666546096e+03 -1.347891952485922275e+03 -8.104529104422738328e+02 -8.302331367366208497e+02 -1.090676636924305740e+03 -6.617993880987298780e+02 -2.410736350634676057e+02 -3.104097272808622279e+02 -3.154819122051790146e+02 -3.289524084418205234e+02 -3.792868977860615587e+02 -4.500820023159573680e+02 -4.305084553553808291e+03 -3.343350217127408541e+03 5.398479568032157658e+02 5.823611271833996170e+02 5.828371634198036872e+02 9.549374300605334156e+02 9.583547566177802537e+02 1.063961201676844667e+03 4.724151043932236576e+02 4.513348430979553996e+02 3.930395652323886111e+02 6.730185184556148670e+02 6.444337122663707760e+02 6.591909020764420575e+02 5.663106490293786237e+02 5.062819276486808349e+02 4.833271932928989258e+02 5.731614930954000329e+02 5.533273476907731947e+02 5.822898245528771213e+02 -1.439437122494982191e+02 -1.184508360485445110e+03 -1.104538677770788127e+03 -1.367167978805499160e+03 -8.014659611917387565e+02 -1.081310828601782305e+03 -1.081017111267927703e+03 -6.940611788862446474e+02 -2.482222487762911385e+02 -2.522852866897464992e+02 -2.997119812117860533e+02 -3.071808114854866858e+02 -3.425316950059052488e+02 -4.114913602146087896e+02 -4.295729629472568377e+03 -3.343322506968491325e+03 5.398839134113981117e+02 5.826371014439552027e+02 9.334263406270897576e+02 9.342141234036059814e+02 9.546683939508122876e+02 1.063569979682707753e+03 4.550242360959742314e+02 4.454705794773536809e+02 4.122474733110156535e+02 6.440587960268667302e+02 6.533922325295148994e+02 6.472667279723139018e+02 1.925322156410928471e+02 1.939484355286285222e+02 5.248899867377834880e+02 5.531607362213175065e+02 5.535451074070676896e+02 5.828556512136177616e+02 -1.887376047770474372e+02 -1.221229874022693139e+03 -1.124305599058727694e+03 -1.420840765634408854e+03 -8.296434056786484916e+02 -1.061566799802161768e+03 -1.139828528442346396e+03 -7.109633565974752401e+02 -1.420670394046846070e+02 -2.525618517870641426e+02 -2.553406620336168089e+02 -3.238728938471630272e+02 -3.292880311568399634e+02 -4.122469967538427227e+02 -4.295699150104800538e+03 -3.344087520924565979e+03 5.626394854843716757e+02 9.339720389642045575e+02 9.340301818984494275e+02 9.336939249502554503e+02 9.342787601351469675e+02 1.059637074414589051e+03 4.007011693913058821e+02 3.919962174476322616e+02 3.243472095137192923e+02 5.856125661233381834e+02 5.880202819212129270e+02 2.502415829288701161e+02 1.437639321554220828e+02 1.894524432972439740e+02 4.796422752745719436e+02 4.599316387229088150e+02 4.605049390099827633e+02 5.376459234199769526e+02 -2.214145464658116396e+02 -1.266731029717067031e+03 -1.182673046038101802e+03 -1.178430152768486550e+03 -9.236317110548242226e+02 -1.185962374097179691e+03 -1.176716562101632917e+03 -7.611647276238317090e+02 -1.577315921476210008e+02 -2.632691742905309411e+02 -2.668398133148963893e+02 -2.876451241793847657e+02 -3.352517075141086025e+02 -3.734797624915274241e+02 -4.307068517127951964e+03 -3.314422736194160279e+03 9.138513129625403053e+02 9.342486114169471421e+02 9.333973884041624842e+02 9.338033136473075047e+02 1.040169456936538381e+03 1.040392653208833281e+03 3.953733733376870987e+02 4.118112483032833779e+02 3.247932421861954140e+02 3.103543945008746618e+02 2.360752167093252751e+02 1.446589444175225481e+02 1.862272715376462884e+02 2.010762691173910071e+02 1.769233578261628566e+02 4.606169975540218502e+02 4.603691451359736675e+02 4.807156836537153026e+02 -2.691693565944518127e+02 -1.313743667920115513e+03 -1.183028449106786866e+03 -1.182617069614877892e+03 -1.254310638732393500e+03 -1.199715669054731507e+03 -1.157365769625875146e+03 -7.611429865953094804e+02 -1.579309472265452143e+02 -2.673272477427185549e+02 -2.878666472228256907e+02 -2.877388299924940611e+02 -2.881851869578738388e+02 -3.597559066396603384e+02 -4.277620712930799527e+03 -3.314548663143637896e+03 9.146816034630485319e+02 9.335217262728126570e+02 9.340499965575445458e+02 9.336389570050646398e+02 1.039500238033112510e+03 1.039863932267661767e+03 3.769744437201926530e+02 3.588017861901993797e+02 3.040335455832398566e+02 -2.428532307046139493e+01 2.501609917161898125e+02 1.861395376247984927e+02 1.859300821148074760e+02 2.011135867869232356e+02 1.686005355689542284e+02 4.606281342368673677e+02 4.517603132078901922e+02 4.615227743110276037e+02 -2.692386663357462453e+02 -1.327405541370206947e+03 -1.336575237588382151e+03 -1.272975023384313090e+03 -9.349207935307078969e+02 -1.254515814814081523e+03 -1.170743551656155205e+03 -7.611241367423865540e+02 -1.618811419101866136e+02 -2.879833919339690738e+02 -2.874616272198910565e+02 -2.879421753114546618e+02 -2.879754397725182571e+02 -3.552062288117506910e+02 -4.277902827846376567e+03 -2.940353088183011096e+03 9.145746501398341479e+02 9.334890209593997952e+02 9.334427646755780188e+02 9.333669630737601892e+02 1.039971698271047899e+03 1.040072058705603922e+03 3.659408155414426460e+02 3.546559733311702303e+02 2.860971068381236364e+02 3.034830438607383485e+02 3.594218673605163872e+02 5.131288636719123133e+02 5.282518675720417605e+02 5.522628445086750162e+02 5.324513987795692174e+02 5.111634339653334678e+02 8.033515030457621151e+02 8.132351773825683949e+02 8.148243808147508105e+01 -9.765004400731926353e+02 -1.026864560196431285e+03 -9.215398010098845134e+02 -6.311333349159938280e+02 -6.138642477689649013e+02 -8.373920196212278597e+02 -7.801756202525493791e+02 -1.820586316936730498e+02 -1.819078166224728363e+02 -2.874860287020595706e+02 -2.877826464244085400e+02 -2.879638639280001371e+02 -3.078388431370065632e+02 -4.228492975387546721e+03 -2.940367451264812189e+03 9.145719210628972178e+02 9.337998776008296318e+02 9.337392870415558264e+02 9.339559419861598144e+02 1.039577917823360394e+03 1.040415715998092082e+03 3.655696705727729636e+02 3.211669681080336431e+02 3.038993203017439555e+02 3.587808518103151414e+02 2.532497986609406269e+02 5.130194907204526089e+02 5.129175842451903691e+02 5.285060519226581164e+02 5.213549516529883476e+02 5.115089269304899631e+02 5.250081125695767241e+02 8.256274771323883215e+02 6.830693904138993844e+01 -9.766635792721903044e+02 -1.027535973132923118e+03 -1.181305776562952360e+03 -6.305515487309265836e+02 -6.307675482010992027e+02 -8.666535353265904860e+02 -8.034706028629349248e+02 -1.813477445383365705e+02 -1.814009556245325996e+02 -2.877026181887657685e+02 -2.879562785640517859e+02 -2.881546778699776041e+02 -3.072521489781714195e+02 -4.210347138691163309e+03 -2.940226600611917092e+03 9.139805424385183414e+02 9.342978935133164669e+02 9.338172462848460782e+02 1.039724454607623329e+03 1.039557253590457321e+03 1.040389509989982344e+03 3.748439662036245181e+02 3.206475238634516245e+02 3.482510622942453438e+02 3.588529456099243475e+02 2.531144980248683680e+02 5.135468210321243987e+02 5.129553698338036156e+02 5.419955916527241016e+02 5.238538605316811072e+02 4.939500994987769786e+02 4.941308093269926189e+02 8.264221039298281539e+02 3.845849606341008098e+01 -1.028277170018616971e+03 -1.036835698520603046e+03 -1.191135607724673719e+03 -6.402707436623713875e+02 -6.470673258064427955e+02 -6.056080309619915170e+02 -8.136852180064786353e+02 -1.820380592033991718e+02 -1.813262477158108084e+02 -2.881497997421994341e+02 -2.875303345525053373e+02 -2.880521452853872688e+02 -3.076942857721439282e+02 -4.162371660910599530e+03 -2.940245307695889551e+03 9.142312127360371505e+02 9.341935626703000253e+02 9.340646930636121397e+02 1.039470525529815859e+03 1.040376013712817894e+03 1.048921519776126843e+03 3.743498672767407243e+02 3.793733529576687147e+02 3.478963676438640960e+02 3.484223136747074250e+02 3.586425906881401602e+02 3.589833721394186909e+02 6.192351839707931731e+02 6.199792528724574368e+02 6.298950532239642826e+02 6.002099918608819280e+02 6.000513488169056018e+02 6.294894409068399455e+02 1.144170297237342027e+02 -9.220420237994092076e+02 -1.191685778341629884e+03 -1.190819935577566412e+03 -6.481159860605056338e+02 -6.648591081903811073e+02 -5.746683842132816835e+02 -8.137139004121786456e+02 -1.819380151097326177e+02 -1.817636950348492917e+02 -1.812479399807380389e+02 -2.875847179673816072e+02 -2.873725055009867901e+02 -3.078531904495590084e+02 -4.162029726360982750e+03 -2.940651715319917457e+03 9.145719382731490441e+02 9.334403114993554027e+02 9.339216670517980674e+02 1.039807723850295815e+03 1.040108430417444652e+03 1.049075078767519017e+03 3.743436105303651402e+02 3.932762039842180570e+02 3.354862686062485864e+02 3.479778508842716747e+02 3.477636977984753912e+02 3.589867296451560037e+02 6.343117776651827171e+02 6.299668544210386472e+02 6.127936136168763142e+02 6.132005661036192805e+02 5.870366707830359019e+02 5.578496935034922899e+02 1.137261279852725124e+02 -9.113748071041235335e+02 -1.191556153516067752e+03 -1.191126558015836963e+03 -6.480370128037014865e+02 -6.778153765604828322e+02 -6.219359490758528182e+02 -5.132343869827875551e+02 -1.819023088972001290e+02 -1.821373785366237428e+02 -1.818270903320519380e+02 -2.880368044971453401e+02 -2.882216709423937573e+02 -3.077551164934730537e+02 -4.173720442426756563e+03 -2.952470472634316593e+03 9.140141924188396843e+02 9.341795565727725261e+02 9.337398469648921946e+02 1.039682462143857265e+03 1.049105873027051075e+03 1.048684252521497456e+03 4.369278071667349082e+02 4.223018936699408528e+02 3.352130488558851766e+02 3.478269589126863366e+02 3.483511380326342532e+02 3.738367901417687449e+02 3.746297942753407710e+02 6.305017821090524421e+02 6.132134059228629894e+02 6.127505508874961606e+02 5.572803256868991184e+02 5.575462846149822553e+02 -1.748289668491504472e+02 -9.303097200532334909e+02 -1.180646135324030638e+03 -1.199155904808213336e+03 -6.642815945493575782e+02 -6.773350301918283094e+02 -6.224655204022966473e+02 -4.825295190636466600e+02 -1.812864230832707051e+02 -1.817278670837567631e+02 -1.815164227285149252e+02 -2.873442922292217645e+02 -2.880077587218288500e+02 -3.072908965043388321e+02 -4.213142448403655180e+03 -2.994452884593459203e+03 9.142344610972959345e+02 9.143088221439684276e+02 1.039758301811772981e+03 1.049040887834891691e+03 1.048396385663497085e+03 1.090711225130835373e+03 4.723782247566877004e+02 4.446252708960923883e+02 3.352531983079448992e+02 3.478701011825033902e+02 3.646648427762161759e+02 3.630725881954401757e+02 3.550333614489272236e+02 3.528462201758940751e+02 3.527669344855614213e+02 2.967770675063325143e+02 2.970205856243783273e+02 2.970255520587437559e+02 -4.663336441810284896e+02 -1.191357155776738864e+03 -1.189294030766475771e+03 -1.214900605158725739e+03 -6.646931447913381135e+02 -6.509644364438071307e+02 -4.826635053598146783e+02 -4.622083011539433528e+02 -1.813066086525683716e+02 -1.816328842154953520e+02 -1.816535076401848698e+02 -2.876284051640883490e+02 -2.883007889746488672e+02 -3.073518397993431677e+02 -3.752172702355805995e+02 -3.436677344672705658e+03 5.631327431565661072e+02 5.627688021157872527e+02 6.884957899619130330e+02 6.975778192745564183e+02 7.436846101865287437e+02 7.560805761602523489e+02 1.307857998131017041e+02 9.790102123111203980e+01 -1.581064380768153121e+01 5.537745126666945295e-01 2.123943319984645939e+01 1.204185177443693355e+01 -7.562564849645518450e+00 1.705866057553341530e+00 -4.095096888077029718e+01 -5.458784385520196025e+01 -5.453219265272539218e+01 -5.469098078300600463e+01 -8.172061072295476833e+02 -1.841102509606465219e+03 -1.555884183616125711e+03 -1.555577396930488021e+03 -1.016466192382994222e+03 -1.002667826876574054e+03 -8.341463004830961836e+02 -4.382613288099886972e+02 -1.514445014519982351e+02 -1.778103901058865119e+02 -1.778083752187319817e+02 -1.814379035164103300e+02 -2.876705352550732187e+02 -3.184891780205354621e+02 -4.659887353412146922e+02 -3.436757248541408444e+03 5.591201932645520856e+02 5.630272370805777200e+02 7.022960275500782927e+02 7.438870317961086585e+02 7.918909642862713554e+02 8.218777266207397361e+02 1.784901255314475179e+02 1.188375551489011599e+02 9.211049683345730443e+01 7.772821435531852785e+00 1.242342819123091680e+01 1.256141848638587710e+01 -2.468951811971364663e+01 -5.127386786881962877e+01 -5.400377947675709578e+01 -5.395064365504330084e+01 -5.391077437455128774e+01 -5.412676490743681512e+01 -8.274655335667688405e+02 -1.885573828854898011e+03 -1.844647145495522409e+03 -1.004850388904772785e+03 -9.917122723685589563e+02 -9.151784268315020654e+02 -8.031897288133098982e+02 -4.334592496028012079e+02 -1.474072801256278353e+02 -1.777957244901025149e+02 -1.778992347788040718e+02 -1.778418301457670907e+02 -2.836741663879523685e+02 -3.453066429296119964e+02 -1.096798734485522345e+03 -3.436784413671601214e+03 5.426558986943587115e+02 6.822374855361030086e+02 7.919243666459826727e+02 7.917896635143551975e+02 8.084035348108770904e+02 8.224278427182470068e+02 1.828008728666822833e+02 1.938427836049646089e+02 1.424794402011773968e+02 3.034613868840903894e+00 1.207907216776061254e+01 -7.610535921795541725e+00 -6.648421529463990964e+01 -5.100253309739984076e+01 -6.500957294308928169e+01 -5.439192618585277472e+01 -5.464923829747785788e+01 -6.494720690001035734e+01 -8.416864693880220329e+02 -1.886507833783569595e+03 -1.344524459866921006e+03 -9.788433738408378986e+02 -9.807846246009560218e+02 -8.026988090302154433e+02 -7.893343836522639094e+02 -4.290990438004335488e+02 -1.468135617617791127e+02 -1.468874194053946098e+02 -1.779498378093746567e+02 -1.772586342210105101e+02 -2.953760916670337338e+02 -3.715420412116094440e+02 -1.098095235568704766e+03 -3.384014903443306594e+03 4.713706867992672187e+02 7.679856177952437974e+02 7.912091321632001382e+02 8.347045274983630634e+02 8.489561571182225634e+02 8.226529182742264084e+02 1.827751032033141030e+02 1.992941070615747492e+02 9.388004224769170492e+01 2.817766676204348641e+01 -3.051997390561535184e+00 -1.722611524390012221e+02 -1.719562637296909031e+02 -1.709084112316326980e+02 -1.714444163746099150e+02 -1.711840631381840865e+02 -1.717097499119248880e+02 -1.844618025426068471e+02 -9.473156916070806801e+02 -1.409125593057037577e+03 -1.423759779349268683e+03 -1.314852987436760259e+03 -8.982576338384453720e+02 -8.847369637182019915e+02 -7.700507728120902584e+02 -4.286810149040193778e+02 -1.474075773757211039e+02 -1.475086704808075808e+02 -1.473069184286015343e+02 -1.776018787301545956e+02 -2.351547897225933355e+02 -1.069956517858254756e+03 -1.098208947943141311e+03 -3.436663934074365898e+03 5.217692229569777282e+02 7.371155537337558599e+02 8.139777823641128407e+02 8.489154788645021199e+02 1.399201803327712469e+03 1.399368154840808756e+03 7.791569808929056080e+02 2.314402783711164489e+02 9.007295342935471183e+01 8.494754484011765783e+01 2.611546994652585951e+01 -3.772948467230418146e+01 -1.101567900674105545e+02 -1.712225506428290203e+02 -1.712092891961417820e+02 -1.713926258342252993e+02 -1.825849985822967767e+02 3.928843372814887402e+02 -3.700934430158616806e+02 -1.350830871029641230e+03 -1.234572724143612277e+03 -1.205163171540766598e+03 -8.756647711503130722e+02 -8.754999697792436564e+02 -7.694229116756966960e+02 -4.180962607184918056e+02 -1.467056643227937229e+02 -1.473059725552425903e+02 -1.472864257478715899e+02 -2.150874520584825973e+02 -2.658054664744533966e+02 -1.098127843789080998e+03 -1.101765359039088253e+03 -3.386410194249038796e+03 5.168956049408410536e+02 6.544941562435467404e+02 8.093992972744387089e+02 1.399438598560327819e+03 1.399910469634414085e+03 1.419166487372035135e+03 8.201394855707304714e+02 7.137716456388502593e+02 7.139646570324973709e+02 7.137497909215337586e+02 6.971036397530581326e+02 6.905865252779175307e+02 6.769795573936200981e+02 6.863847542948524278e+02 6.860419075362224248e+02 6.794521496209763427e+02 6.677741264891757282e+02 6.674710212787862247e+02 -8.521482789260090840e+01 -1.123289213676022882e+03 -1.138795394546364605e+03 -1.151478825738013484e+03 -1.101324139657778915e+03 -8.118005956563023346e+02 -7.057178348090363897e+02 -3.540949238281548332e+02 -7.231616286878103494e+01 -8.317867597405482627e+01 -1.208923423704815576e+02 -1.422478724039953590e+02 -9.234109806961646427e+02 -1.038801914356392217e+03 -1.080746500499038575e+03 -3.385705222544522258e+03 6.013074048016096640e+02 6.539657433259806112e+02 1.254992224423780499e+03 1.374465171922287482e+03 1.419915972016520527e+03 1.423933230811403064e+03 8.202100290054037259e+02 7.140749726473923147e+02 7.146414301488905494e+02 6.972170474896083761e+02 6.781689828593821403e+02 6.767283751283773654e+02 6.770383210770580718e+02 6.916959532259490970e+02 6.782311985116906499e+02 6.679137577045472653e+02 6.675361205928796835e+02 6.671048960031445176e+02 -9.527935524949347723e+01 -1.124075922677081053e+03 -1.138511072376122684e+03 -1.151487977486843420e+03 -1.131739945070838303e+03 -8.124065194041521636e+02 -8.120274721375200215e+02 -3.543709753333757249e+02 -7.239737456832099838e+01 -1.099331436048191932e+02 -1.420649687058879067e+02 -8.734051987889301927e+02 -9.324636507353973229e+02 -1.038431742562067711e+03 -1.038291272904648849e+03 -3.359450532292116804e+03 1.152361797728189231e+03 1.169478081573171266e+03 1.254707803814054387e+03 1.276742683063553159e+03 1.398183995068634886e+03 1.423711993322172248e+03 8.204900732545632991e+02 7.140983097074245052e+02 7.140787469740346296e+02 6.975264702295560255e+02 6.781687243729297734e+02 6.643465044915420776e+02 6.765105210298772818e+02 6.772765856258690746e+02 6.670161329863875608e+02 6.670782741123520054e+02 6.679342821743776994e+02 6.673405658592133705e+02 -9.534165286534835104e+01 -1.134993072264635430e+03 -1.138586541967699759e+03 -1.151055314911655614e+03 -1.131237356422561561e+03 -1.101356312135577582e+03 -8.121653107016239801e+02 -3.540368675585060600e+02 -1.099084715648261295e+02 -6.815400707952899211e+02 -8.619456588232210379e+02 -8.820831646933362435e+02 -9.015019613732091557e+02 -9.322608601429107011e+02 -1.038545258501000944e+03 -2.835236691755767879e+03 1.152137301916676961e+03 1.182693668973431613e+03 1.224154837153137805e+03 1.231558843462601544e+03 1.279313449372544028e+03 1.398403916990845346e+03 8.161612515927760114e+02 7.143526912546635685e+02 6.970525909213595241e+02 6.972262785626558070e+02 6.644296015514313467e+02 6.637295044784410720e+02 6.623053695860467087e+02 6.676280377662245655e+02 6.677376291666213319e+02 6.678654164626176453e+02 6.670408028100370075e+02 6.674248709789595750e+02 -9.529855972617332327e+01 -1.134809587568578308e+03 -1.162446298272151353e+03 -1.150691651607224458e+03 -1.151385956668088511e+03 -1.131724593346576967e+03 -1.127643598796162905e+03 -3.920256442709082876e+02 -6.813297404634400891e+02 -8.625122876095792890e+02 -8.711122642074766418e+02 -8.715392828818321505e+02 -9.020491880202334869e+02 -9.324408154679922518e+02 -1.038202748691639499e+03 -3.385647904302118150e+03 1.142326182748472320e+03 1.178660780804392289e+03 1.226729749558217463e+03 1.226262300587473419e+03 1.226836882635511074e+03 1.279706701592611580e+03 5.701602601673893105e+02 7.101016834092829413e+02 6.976313695844692120e+02 6.774950175291762662e+02 6.641508895267096477e+02 6.491513920788710266e+02 6.523206744452837711e+02 6.672663323438179077e+02 6.675016803810354986e+02 6.671917537226214563e+02 6.670986860550052597e+02 6.676288158387584417e+02 -9.566621203275610696e+01 -1.134759962470613118e+03 -1.161928327649759922e+03 -1.162146948089673288e+03 -1.177886177140234395e+03 -1.169017197609161030e+03 -1.689419278420172759e+03 -1.131127586754404774e+03 -8.660661023949182891e+02 -8.710989375664850058e+02 -8.711146907066453196e+02 -8.709518726860492279e+02 -8.906228556595879127e+02 -9.018093165149699644e+02 -1.038739563644613099e+03 -3.280209105518506476e+03 6.054072813958155166e+02 6.287928349031695916e+02 6.489452490410843666e+02 1.200174564501639452e+03 1.200043420948496532e+03 1.226034370317170669e+03 5.168850065554387356e+02 5.534958043924651747e+02 5.528592348457972321e+02 6.025236678338022784e+02 6.478005942698281387e+02 6.399280276163253802e+02 6.522678967987316128e+02 6.678377827986042803e+02 6.675771126337480155e+02 6.671591105254309468e+02 6.679536839406217723e+02 6.670669716166509033e+02 -9.552579345439491476e+01 -1.134930214791089611e+03 -1.188082158481027363e+03 -1.749929633571254499e+03 -1.750069288211324192e+03 -1.907556682048626271e+03 -1.925480653521800605e+03 -1.548190674429027013e+03 -8.711630175050531761e+02 -8.715529042589225810e+02 -8.712249784695188737e+02 -8.713655374099415667e+02 -8.912134512675630731e+02 -8.905464133579251893e+02 -9.325567590579431680e+02 -3.263413865617879310e+03 6.288923180513443185e+02 6.295382368494730372e+02 6.298944426516283102e+02 6.496628944317056948e+02 6.493289110847935035e+02 6.492485668152161224e+02 -6.015689895063022163e+01 4.739111621779760526e+02 4.742907367466229971e+02 4.457523213749460638e+02 4.557568369338940215e+02 4.952210528447740785e+02 5.186846331829012797e+02 6.091473706209764032e+02 6.673036080581981651e+02 6.406707225948664473e+02 8.996707927488013468e+01 9.025551774481344580e+01 -7.422067310781847027e+02 -1.847106455161048643e+03 -1.937902846685955183e+03 -1.955966496967445210e+03 -1.961077146352894260e+03 -1.961198426506901569e+03 -1.930939979763335714e+03 -1.548213770194971630e+03 -1.132328214027866125e+03 -8.710198747533988808e+02 -8.711729609536827184e+02 -8.714258240256831414e+02 -8.908903835488091545e+02 -8.912126789967255718e+02 -8.911765911122602120e+02
